{"learner":{"attributes":{"scikit_learn":"{\"_estimator_type\": \"regressor\"}"},"feature_names":["W_Rate","R_Rate","Margin_Abs","Margin_Pct","Month","Quarter","Lag_1","Lag_2","Lag_3","Lag_6","Lag_12","Rolling_Mean_3M","YoY_Growth","Category_Liquor"],"feature_types":["float","float","float","float","int","int","float","float","float","float","float","float","float","i"],"gradient_booster":{"model":{"cats":{"enc":[],"feature_segments":[],"sorted_idx":[]},"gbtree_model_param":{"num_parallel_tree":"1","num_trees":"500"},"iteration_indptr":[0,1,2,3,4,5,6,7,8,9,10,11,12,13,14,15,16,17,18,19,20,21,22,23,24,25,26,27,28,29,30,31,32,33,34,35,36,37,38,39,40,41,42,43,44,45,46,47,48,49,50,51,52,53,54,55,56,57,58,59,60,61,62,63,64,65,66,67,68,69,70,71,72,73,74,75,76,77,78,79,80,81,82,83,84,85,86,87,88,89,90,91,92,93,94,95,96,97,98,99,100,101,102,103,104,105,106,107,108,109,110,111,112,113,114,115,116,117,118,119,120,121,122,123,124,125,126,127,128,129,130,131,132,133,134,135,136,137,138,139,140,141,142,143,144,145,146,147,148,149,150,151,152,153,154,155,156,157,158,159,160,161,162,163,164,165,166,167,168,169,170,171,172,173,174,175,176,177,178,179,180,181,182,183,184,185,186,187,188,189,190,191,192,193,194,195,196,197,198,199,200,201,202,203,204,205,206,207,208,209,210,211,212,213,214,215,216,217,218,219,220,221,222,223,224,225,226,227,228,229,230,231,232,233,234,235,236,237,238,239,240,241,242,243,244,245,246,247,248,249,250,251,252,253,254,255,256,257,258,259,260,261,262,263,264,265,266,267,268,269,270,271,272,273,274,275,276,277,278,279,280,281,282,283,284,285,286,287,288,289,290,291,292,293,294,295,296,297,298,299,300,301,302,303,304,305,306,307,308,309,310,311,312,313,314,315,316,317,318,319,320,321,322,323,324,325,326,327,328,329,330,331,332,333,334,335,336,337,338,339,340,341,342,343,344,345,346,347,348,349,350,351,352,353,354,355,356,357,358,359,360,361,362,363,364,365,366,367,368,369,370,371,372,373,374,375,376,377,378,379,380,381,382,383,384,385,386,387,388,389,390,391,392,393,394,395,396,397,398,399,400,401,402,403,404,405,406,407,408,409,410,411,412,413,414,415,416,417,418,419,420,421,422,423,424,425,426,427,428,429,430,431,432,433,434,435,436,437,438,439,440,441,442,443,444,445,446,447,448,449,450,451,452,453,454,455,456,457,458,459,460,461,462,463,464,465,466,467,468,469,470,471,472,473,474,475,476,477,478,479,480,481,482,483,484,485,486,487,488,489,490,491,492,493,494,495,496,497,498,499,500],"tree_info":[0,0,0,0,0,0,0,0,0,0,0,0,0,0,0,0,0,0,0,0,0,0,0,0,0,0,0,0,0,0,0,0,0,0,0,0,0,0,0,0,0,0,0,0,0,0,0,0,0,0,0,0,0,0,0,0,0,0,0,0,0,0,0,0,0,0,0,0,0,0,0,0,0,0,0,0,0,0,0,0,0,0,0,0,0,0,0,0,0,0,0,0,0,0,0,0,0,0,0,0,0,0,0,0,0,0,0,0,0,0,0,0,0,0,0,0,0,0,0,0,0,0,0,0,0,0,0,0,0,0,0,0,0,0,0,0,0,0,0,0,0,0,0,0,0,0,0,0,0,0,0,0,0,0,0,0,0,0,0,0,0,0,0,0,0,0,0,0,0,0,0,0,0,0,0,0,0,0,0,0,0,0,0,0,0,0,0,0,0,0,0,0,0,0,0,0,0,0,0,0,0,0,0,0,0,0,0,0,0,0,0,0,0,0,0,0,0,0,0,0,0,0,0,0,0,0,0,0,0,0,0,0,0,0,0,0,0,0,0,0,0,0,0,0,0,0,0,0,0,0,0,0,0,0,0,0,0,0,0,0,0,0,0,0,0,0,0,0,0,0,0,0,0,0,0,0,0,0,0,0,0,0,0,0,0,0,0,0,0,0,0,0,0,0,0,0,0,0,0,0,0,0,0,0,0,0,0,0,0,0,0,0,0,0,0,0,0,0,0,0,0,0,0,0,0,0,0,0,0,0,0,0,0,0,0,0,0,0,0,0,0,0,0,0,0,0,0,0,0,0,0,0,0,0,0,0,0,0,0,0,0,0,0,0,0,0,0,0,0,0,0,0,0,0,0,0,0,0,0,0,0,0,0,0,0,0,0,0,0,0,0,0,0,0,0,0,0,0,0,0,0,0,0,0,0,0,0,0,0,0,0,0,0,0,0,0,0,0,0,0,0,0,0,0,0,0,0,0,0,0,0,0,0,0,0,0,0,0,0,0,0,0,0,0,0,0,0,0,0,0,0,0,0,0,0,0,0,0,0,0,0,0,0,0,0,0,0,0,0,0,0,0,0,0,0,0,0,0,0,0,0,0,0,0,0,0,0,0,0,0,0,0,0,0,0,0,0,0,0,0],"trees":[{"base_weights":[-2.4338491E-2,-2.7796626E0,1.7560248E2,-6.620879E0,2.9221233E1,1.3415952E2,4.6749805E2,-8.627692E0,4.894826E0,2.0398397E1,5.8205933E1,1.1850481E2,2.2594952E2,5.5144556E2,2.1668666E2,-9.083129E0,1.9190166E1,2.6180913E0,1.6227148E1,1.8335207E1,6.698544E1,5.3278736E1,1.1718813E2,8.96368E1,1.412579E2,1.842015E2,2.9407007E2,7.539881E2,4.0722473E2,-3.0204898E-1,2.548181E2,-6.2944646E0,-1.0713394E1,3.904355E1,3.7124515E0,1.5584474E0,1.7207243E1,2.9925323E1,1.2043586E1,1.3959215E1,3.0064745E1,1.20178085E2,5.4301144E1,4.8573936E1,8.7238365E1,9.7851906E1,1.8481953E2,9.561388E1,2.575435E1,2.088619E2,1.2670288E2,1.45925E2,2.3437032E2,1.742695E1,2.4928918E2,4.2982816E2,1.026803E3,2.0714816E2,4.6931143E2,1.8960925E2,3.254982E2,3.4848454E0,-6.999974E0,-1.143546E1,-7.9441247E0,2.2623611E1,6.402633E1,1.3080448E0,8.849819E1,4.0071064E1,1.354702E0,8.049819E1,1.5523696E1,2.7387499E1,7.322446E1,9.655619E0,2.4614809E1,1.07318735E1,1.9898563E1,5.6425163E1,2.7962437E1,8.5374565E1,2.0876486E2,7.750881E1,3.2607864E1,1.2347524E1,5.1132015E1,7.696431E1,1.4197397E2,8.1171394E1,1.9140483E2,2.2922446E2,2.4587471E0,1.0774946E2,6.572693E1,4.7813857E-1,6.2652035E1,1.875372E2,1.1159948E1,1.1806047E2,1.9007948E2,1.5676143E0,1.6176627E2,1.1377614E1,1.7942668E2,3.1557812E2,1.8870581E2,5.5020483E2,1.7169509E0,8.101982E2,3.8324947E1,1.0431951E1,1.1162549E2,7.347614E0,5.112062E2,7.515806E0,1.3826486E2,5.102949E0,1.3031521E1,-1.1029087E-1,2.1108577E-1,-2.5523478E-1,-1.1512379E-1,-3.4367067E-1,1.4209477E0,-2.568282E-1,-1.4859453E-2,4.47825E-1,1.2844831E0,2.3885296E-1,2.2036836E0,-2.7410759E-2,8.4945714E-1,4.6669507E0,8.1369853E-1,5.356576E-1,2.947747E0,-4.0245317E-2,1.0491348E-1,7.872353E-1,3.697235E0,8.6438197E-1,3.942543E-1,1.1810074E0,6.267505E-1,1.5579461E0,2.8799484E0,6.973123E-1,2.5261426E-1,6.565415E-1,3.071951E0,2.7448186E-1,5.8344907E-1,2.5094172E-1,6.276165E-1,2.0520504E0,4.3206355E-1,7.365428E-1,1.1342958E0,4.430948E0,1.815405E0,3.457235E0,8.491951E0,3.9209435E0,1.7449135E0,5.810984E-1,1.6047888E0,1.6254461E0,1.8221022E-1,1.2608818E0,1.8915821E0,3.2573109E0,2.0045605E0,4.6447616E0,2.6661985E0,1.4709426E0,3.1114037E0,2.7076144E0,8.822949E0,3.8086636E0,7.999561E0,2.6599152E0,4.27992E0,3.7214512E-1,2.2371104E0,-3.192081E-1,5.5494857E-1,2.9324484E0,1.6195102E-1,4.6131024E0,7.6725516E0,3.3407073E0,5.31013E0,6.426761E0,3.0105827E0,6.9264836E0,3.8588803E0,1.896951E0,6.057987E0,5.548747E0,1.2168764E1,3.390446E0,7.100145E0,1.1728746E1,2.1716951E1,2.9164282E1,1.2966951E1,4.761951E0,1.376951E0,1.6718529E1,9.177614E0,2.4800923E0,5.401951E0],"categories":[],"categories_nodes":[],"categories_segments":[],"categories_sizes":[],"default_left":[0,0,0,0,0,0,0,0,0,0,0,0,0,0,0,0,0,0,0,0,0,0,0,0,0,0,0,0,0,0,0,0,0,0,0,0,0,0,0,0,0,0,0,0,0,0,0,0,0,0,0,0,0,0,0,0,0,0,0,0,0,0,0,0,0,0,0,0,0,0,0,0,0,0,0,0,0,0,0,0,0,0,0,0,0,0,0,0,0,0,0,0,0,0,0,0,0,0,0,0,0,0,0,0,0,0,0,0,0,0,0,0,0,0,0,0,0,0,0,0,0,0,0,0,0,0,0,0,0,0,0,0,0,0,0,0,0,0,0,0,0,0,0,0,0,0,0,0,0,0,0,0,0,0,0,0,0,0,0,0,0,0,0,0,0,0,0,0,0,0,0,0,0,0,0,0,0,0,0,0,0,0,0,0,0,0,0,0,0,0,0,0,0,0,0,0,0,0,0,0,0,0,0,0,0,0,0,0,0,0,0,0,0],"id":0,"left_children":[1,3,5,7,9,11,13,15,17,19,21,23,25,27,29,31,33,35,37,39,41,43,45,47,49,51,53,55,57,-1,59,61,63,65,67,69,71,73,75,77,79,81,83,85,87,89,91,93,95,97,99,101,103,-1,105,107,109,111,113,115,117,119,121,123,125,127,129,131,133,135,137,139,141,143,145,147,149,151,153,155,157,159,161,163,165,167,169,171,173,175,177,179,-1,181,183,185,187,189,-1,191,193,-1,195,-1,197,199,201,203,-1,205,-1,-1,207,-1,209,-1,211,-1,-1,-1,-1,-1,-1,-1,-1,-1,-1,-1,-1,-1,-1,-1,-1,-1,-1,-1,-1,-1,-1,-1,-1,-1,-1,-1,-1,-1,-1,-1,-1,-1,-1,-1,-1,-1,-1,-1,-1,-1,-1,-1,-1,-1,-1,-1,-1,-1,-1,-1,-1,-1,-1,-1,-1,-1,-1,-1,-1,-1,-1,-1,-1,-1,-1,-1,-1,-1,-1,-1,-1,-1,-1,-1,-1,-1,-1,-1,-1,-1,-1,-1,-1,-1,-1,-1,-1,-1,-1,-1,-1,-1,-1,-1,-1],"loss_changes":[3.361568E7,8.407344E6,1.2917318E7,1.4112468E6,1.8732855E6,1.325356E6,2.680744E6,6.5901275E5,2.337873E5,5.39042E5,4.906945E5,5.16726E5,3.32554E5,2.584718E6,3.0521738E5,2.32545E5,2.5735556E5,1.1665814E5,8.651303E4,2.75928E5,1.54038E5,2.481905E5,1.5320012E5,1.342205E5,4.15308E5,1.328265E5,4.973265E5,3.09593E6,6.48041E5,0E0,7.65E4,1.3027831E5,6.44705E4,1.49092E5,9.60969E4,5.5167133E4,5.318947E4,3.6884E4,3.467178E4,7.498056E4,7.9434375E4,1.2088831E5,9.5131E4,1.281735E5,9.646125E4,1.4672931E5,1.0907344E5,1.11502E5,2.9808012E4,2.015295E5,1.81283E5,6.8686875E4,2.1847125E5,0E0,1.2111875E5,8.6548875E5,1.05102E5,1.76001E5,2.97756E5,2.1622062E4,1.460225E5,3.2350191E4,8.393644E4,3.099925E4,3.0690938E4,3.40101E4,7.606525E4,2.7629936E4,4.9273164E4,4.6062945E4,4.0451285E4,2.6899445E4,1.5411977E4,2.5317734E4,4.213383E3,1.6231953E4,3.7032477E4,3.491E4,1.60888125E4,5.2858594E4,4.4613125E4,4.372217E4,5.0725312E4,8.807144E4,2.7157023E4,2.4073703E4,1.3818525E5,4.5006625E4,6.006E3,6.0104625E4,1.2923125E5,3.8833625E4,0E0,1.4125825E5,4.4806594E4,4.2047197E3,2.5584055E4,1.2417425E5,0E0,1.106545E5,7.163125E4,0E0,7.1039375E4,0E0,6.0428E4,1.601565E5,6.7612375E4,1.31776E5,0E0,4.36604E5,0E0,0E0,2.6751719E4,0E0,1.79418E5,0E0,1.2974422E4,0E0,0E0,0E0,0E0,0E0,0E0,0E0,0E0,0E0,0E0,0E0,0E0,0E0,0E0,0E0,0E0,0E0,0E0,0E0,0E0,0E0,0E0,0E0,0E0,0E0,0E0,0E0,0E0,0E0,0E0,0E0,0E0,0E0,0E0,0E0,0E0,0E0,0E0,0E0,0E0,0E0,0E0,0E0,0E0,0E0,0E0,0E0,0E0,0E0,0E0,0E0,0E0,0E0,0E0,0E0,0E0,0E0,0E0,0E0,0E0,0E0,0E0,0E0,0E0,0E0,0E0,0E0,0E0,0E0,0E0,0E0,0E0,0E0,0E0,0E0,0E0,0E0,0E0,0E0,0E0,0E0,0E0,0E0,0E0,0E0,0E0,0E0,0E0,0E0,0E0,0E0,0E0,0E0,0E0,0E0,0E0],"parents":[2147483647,0,0,1,1,2,2,3,3,4,4,5,5,6,6,7,7,8,8,9,9,10,10,11,11,12,12,13,13,14,14,15,15,16,16,17,17,18,18,19,19,20,20,21,21,22,22,23,23,24,24,25,25,26,26,27,27,28,28,30,30,31,31,32,32,33,33,34,34,35,35,36,36,37,37,38,38,39,39,40,40,41,41,42,42,43,43,44,44,45,45,46,46,47,47,48,48,49,49,50,50,51,51,52,52,54,54,55,55,56,56,57,57,58,58,59,59,60,60,61,61,62,62,63,63,64,64,65,65,66,66,67,67,68,68,69,69,70,70,71,71,72,72,73,73,74,74,75,75,76,76,77,77,78,78,79,79,80,80,81,81,82,82,83,83,84,84,85,85,86,86,87,87,88,88,89,89,90,90,91,91,93,93,94,94,95,95,96,96,97,97,99,99,100,100,102,102,104,104,105,105,106,106,107,107,109,109,112,112,114,114,116,116],"right_children":[2,4,6,8,10,12,14,16,18,20,22,24,26,28,30,32,34,36,38,40,42,44,46,48,50,52,54,56,58,-1,60,62,64,66,68,70,72,74,76,78,80,82,84,86,88,90,92,94,96,98,100,102,104,-1,106,108,110,112,114,116,118,120,122,124,126,128,130,132,134,136,138,140,142,144,146,148,150,152,154,156,158,160,162,164,166,168,170,172,174,176,178,180,-1,182,184,186,188,190,-1,192,194,-1,196,-1,198,200,202,204,-1,206,-1,-1,208,-1,210,-1,212,-1,-1,-1,-1,-1,-1,-1,-1,-1,-1,-1,-1,-1,-1,-1,-1,-1,-1,-1,-1,-1,-1,-1,-1,-1,-1,-1,-1,-1,-1,-1,-1,-1,-1,-1,-1,-1,-1,-1,-1,-1,-1,-1,-1,-1,-1,-1,-1,-1,-1,-1,-1,-1,-1,-1,-1,-1,-1,-1,-1,-1,-1,-1,-1,-1,-1,-1,-1,-1,-1,-1,-1,-1,-1,-1,-1,-1,-1,-1,-1,-1,-1,-1,-1,-1,-1,-1,-1,-1,-1,-1,-1,-1,-1,-1,-1],"split_conditions":[1.26E2,2.7E1,3.5633334E2,9E0,7.9E1,2.6166666E2,1E1,5.4E1,3.5E1,1.2E2,1.93E2,1.46E2,3.58E2,9.74E0,3.0013192E-2,3.99E0,5E0,3.2E1,1.56E0,5.1E1,3E0,1.06E2,8E1,3.58E2,4E1,3.119E1,6.83E0,5E0,5E0,-3.0204898E-1,5.0099757E-2,7.6E-1,1.6666666E0,9.5E1,6E0,1.45E1,1.903E1,1.01E2,5.9E1,4E1,1E0,9.9E1,2.732E1,2E0,1.83E2,2.56E0,5E0,1E1,2.13E2,2.14E2,2.4E2,6.7E1,1.7722214E0,1.742695E1,7E0,5.0239235E-2,5.012788E-2,1E0,2.95E2,4.78E2,3.58E2,4E0,3.3333334E-1,1.15E2,1.4E1,1E0,1.103E1,-9.705882E-1,3.472E1,1.352E1,1.6E1,7E0,3.9385E1,2.3E1,5.0054938E-2,-4.5454547E-2,1.006E1,3.2E1,2E0,9E0,8E1,1.964E1,2.53E2,5E0,5.8E1,1.25E0,1.06E2,6.7E-1,9E0,6E0,7.5E1,3.7732894E0,2.4587471E0,1.63E2,1E0,1.964E1,4.78E2,5.0081432E-2,1.1159948E1,2.53E2,2.13E2,1.5676143E0,1.103E1,1.1377614E1,2E0,5E0,8.8208435E1,5.11E2,1.7169509E0,4.9824834E-2,3.8324947E1,1.0431951E1,4E0,7.347614E0,5.0099757E-2,7.515806E0,1.103E1,5.102949E0,1.3031521E1,-1.1029087E-1,2.1108577E-1,-2.5523478E-1,-1.1512379E-1,-3.4367067E-1,1.4209477E0,-2.568282E-1,-1.4859453E-2,4.47825E-1,1.2844831E0,2.3885296E-1,2.2036836E0,-2.7410759E-2,8.4945714E-1,4.6669507E0,8.1369853E-1,5.356576E-1,2.947747E0,-4.0245317E-2,1.0491348E-1,7.872353E-1,3.697235E0,8.6438197E-1,3.942543E-1,1.1810074E0,6.267505E-1,1.5579461E0,2.8799484E0,6.973123E-1,2.5261426E-1,6.565415E-1,3.071951E0,2.7448186E-1,5.8344907E-1,2.5094172E-1,6.276165E-1,2.0520504E0,4.3206355E-1,7.365428E-1,1.1342958E0,4.430948E0,1.815405E0,3.457235E0,8.491951E0,3.9209435E0,1.7449135E0,5.810984E-1,1.6047888E0,1.6254461E0,1.8221022E-1,1.2608818E0,1.8915821E0,3.2573109E0,2.0045605E0,4.6447616E0,2.6661985E0,1.4709426E0,3.1114037E0,2.7076144E0,8.822949E0,3.8086636E0,7.999561E0,2.6599152E0,4.27992E0,3.7214512E-1,2.2371104E0,-3.192081E-1,5.5494857E-1,2.9324484E0,1.6195102E-1,4.6131024E0,7.6725516E0,3.3407073E0,5.31013E0,6.426761E0,3.0105827E0,6.9264836E0,3.8588803E0,1.896951E0,6.057987E0,5.548747E0,1.2168764E1,3.390446E0,7.100145E0,1.1728746E1,2.1716951E1,2.9164282E1,1.2966951E1,4.761951E0,1.376951E0,1.6718529E1,9.177614E0,2.4800923E0,5.401951E0],"split_indices":[11,11,11,6,6,11,4,10,6,10,6,6,6,0,3,2,4,10,2,11,4,10,10,7,7,0,0,4,4,0,3,2,11,10,6,0,0,10,6,6,7,7,1,4,9,2,4,4,11,9,9,6,9,0,4,3,3,7,6,7,6,4,11,9,10,7,0,12,0,0,6,4,0,0,3,12,2,10,4,4,11,0,10,4,11,12,6,2,4,4,9,9,0,11,6,0,7,3,0,10,11,0,0,0,4,4,9,10,0,3,0,0,4,0,3,0,0,0,0,0,0,0,0,0,0,0,0,0,0,0,0,0,0,0,0,0,0,0,0,0,0,0,0,0,0,0,0,0,0,0,0,0,0,0,0,0,0,0,0,0,0,0,0,0,0,0,0,0,0,0,0,0,0,0,0,0,0,0,0,0,0,0,0,0,0,0,0,0,0,0,0,0,0,0,0,0,0,0,0,0,0,0,0,0,0,0,0,0,0,0,0,0,0],"split_type":[0,0,0,0,0,0,0,0,0,0,0,0,0,0,0,0,0,0,0,0,0,0,0,0,0,0,0,0,0,0,0,0,0,0,0,0,0,0,0,0,0,0,0,0,0,0,0,0,0,0,0,0,0,0,0,0,0,0,0,0,0,0,0,0,0,0,0,0,0,0,0,0,0,0,0,0,0,0,0,0,0,0,0,0,0,0,0,0,0,0,0,0,0,0,0,0,0,0,0,0,0,0,0,0,0,0,0,0,0,0,0,0,0,0,0,0,0,0,0,0,0,0,0,0,0,0,0,0,0,0,0,0,0,0,0,0,0,0,0,0,0,0,0,0,0,0,0,0,0,0,0,0,0,0,0,0,0,0,0,0,0,0,0,0,0,0,0,0,0,0,0,0,0,0,0,0,0,0,0,0,0,0,0,0,0,0,0,0,0,0,0,0,0,0,0,0,0,0,0,0,0,0,0,0,0,0,0,0,0,0,0,0,0],"sum_hessian":[6.9465E4,6.8393E4,1.072E3,6.1064E4,7.329E3,9.4E2,1.32E2,5.2002E4,9.062E3,5.62E3,1.709E3,8.05E2,1.35E2,9.8E1,3.4E1,5.1165E4,8.37E2,7.547E3,1.515E3,5.383E3,2.37E2,1.579E3,1.3E2,3.57E2,4.48E2,8.6E1,4.9E1,3.9E1,5.9E1,5E0,2.9E1,1.8878E4,3.2287E4,3.66E2,4.71E2,7.037E3,5.1E2,3.53E2,1.162E3,3.922E3,1.461E3,4.4E1,1.93E2,1.389E3,1.9E2,1.03E2,2.7E1,3.26E2,3.1E1,7.7E1,3.71E2,5.1E1,3.5E1,5E0,4.4E1,1.9E1,2E1,1.5E1,4.4E1,1.7E1,1.2E1,1.27E3,1.7608E4,2.5607E4,6.68E3,2.22E2,1.44E2,4.59E2,1.2E1,3.6E1,7.001E3,1.2E1,4.98E2,3.35E2,1.8E1,9.78E2,1.84E2,2.543E3,1.379E3,1.06E2,1.355E3,3.3E1,1.1E1,9.2E1,1.01E2,9.2E1,1.297E3,1.62E2,2.8E1,8.9E1,1.4E1,1.8E1,9E0,2.3E2,9.6E1,1.9E1,1.2E1,7E1,7E0,3.29E2,4.2E1,8E0,4.3E1,8E0,2.7E1,1.9E1,2.5E1,1.4E1,5E0,1.3E1,7E0,5E0,1E1,8E0,3.6E1,6E0,1.1E1,6E0,6E0,4.21E2,8.49E2,1.1922E4,5.686E3,2.5599E4,8E0,6.169E3,5.11E2,1.62E2,6E1,2.1E1,1.23E2,4.25E2,3.4E1,5E0,7E0,2.7E1,9E0,3.1E3,3.901E3,6E0,6E0,7.4E1,4.24E2,1.16E2,2.19E2,1.1E1,7E0,8E1,8.98E2,1.79E2,5E0,2.154E3,3.89E2,1.13E2,1.266E3,8.2E1,2.4E1,1.009E3,3.46E2,8E0,2.5E1,6E0,5E0,2.3E1,6.9E1,6.3E1,3.8E1,1.1E1,8.1E1,7.38E2,5.59E2,3.7E1,1.25E2,2.1E1,7E0,3.8E1,5.1E1,8E0,6E0,6E0,1.2E1,1.51E2,7.9E1,1.4E1,8.2E1,1.2E1,7E0,7E0,5E0,4.9E1,2.1E1,2.98E2,3.1E1,3.2E1,1E1,1.2E1,3.1E1,5E0,2.2E1,9E0,1E1,1.1E1,1.4E1,9E0,5E0,8E0,5E0,5E0,5E0,2.8E1,8E0,6E0,5E0],"tree_param":{"num_deleted":"0","num_feature":"14","num_nodes":"213","size_leaf_vector":"1"}},{"base_weights":[5.687983E-2,-1.8615813E0,2.457834E2,-5.7985153E0,4.095761E1,1.7157881E2,4.4674295E2,-8.381009E0,4.7969513E0,3.0492714E1,8.572115E1,1.4776476E2,2.1972214E2,6.4091815E2,3.209579E2,2.4936611E1,-8.584881E0,1.5839245E0,1.0003775E1,4.5293667E1,2.4336071E1,7.8590225E1,1.3050166E2,2.207796E2,1.3360402E2,3.6479678E2,2.0310588E2,2.9112616E2,7.3989655E2,3.6737802E2,1.7799095E2,4.8509575E1,-2.0584318E-1,-4.3803396E0,-9.751942E0,2.6802053E1,1.139226E0,2.814507E1,8.900932E0,1.2929175E2,4.352962E1,2.0448332E1,3.955281E1,1.15300186E2,7.281325E1,1.8225756E1,1.4013199E2,1.3983612E2,3.2093002E2,1.630681E2,1.02967094E2,1.485637E1,4.5548754E0,2.4738873E2,1.6570418E2,1.4953809E1,2.1991649E0,8.7629926E2,3.1448965E2,1.6525798E2,4.327917E2,1.8541296E-1,6.686211E0,4.1745403E1,1.2177786E2,-2.6360445E0,1.0560257E1,-6.4302497E0,2.1491888E0,-1.0690883E1,-6.346553E0,3.8311676E1,2.6482368E0,5.9257646E0,-6.615889E-1,9.5077225E1,2.1553871E1,8.061166E0,2.5152838E1,5.273764E0,8.400548E-1,4.266095E1,5.5464253E0,3.272147E1,1.819085E1,6.5966385E1,3.459733E1,1.3420245E2,5.4396423E1,5.9970493E1,8.535724E1,1.23744406E-1,8.9126194E-1,2.185588E2,1.2951398E2,6.324122E0,7.8463875E1,6.0025773E0,1.1927602E1,1.7234937E2,1.0687695E0,1.09702644E2,4.7012997E1,2.756866E2,3.028767E0,1.2627483E2,2.2302066E2,1.6498985E1,9.996294E2,2.7929397E0,1.5610448E1,7.916147E0,7.850645E1,3.2154004E2,1.5067866E1,3.4315348E-1,1.471025E0,5.1704183E0,1.6139197E0,2.5295191E-3,-3.1388533E-1,4.6051297E-1,-2.8636372E-1,1.2847777E-2,-2.21201E-1,1.1392632E0,9.914935E-3,-3.2194242E-1,1.409051E0,-1.0813317E-1,-2.419014E-1,2.3759532E0,5.859021E-1,3.3152243E-1,-2.3946941E-1,3.2520244E-1,1.1002558E-1,1.4605623E-1,-5.7561137E-2,1.136708E0,4.7762446E0,9.3546134E-1,4.3148863E-1,4.3929848E-1,1.939127E-1,6.8236244E-1,2.5737872E0,1.8302008E0,1.1264871E0,8.6692315E-1,1.8755119E0,4.5068616E-1,6.9361293E-1,1.7133757E0,3.4759676E0,9.8383504E-1,2.984084E0,3.5550165E0,5.4702225E0,9.024128E-1,2.6284084E0,2.7539902E0,1.5956111E0,2.3495045E0,3.7068365E0,9.989737E0,2.3038206E0,3.3019676E0,5.274626E0,1.0659592E0,4.1076913E0,5.407955E0,3.107488E-1,2.27305E0,3.5960093E0,1.8806591E0,4.6942112E-1,6.926351E0,1.0560158E1,5.279393E-1,4.425136E0,5.409572E0,8.50898E0,2.2208822E1,3.5749687E1,2.9136772E0,1.4036771E0,1.2063573E1,7.0444374E0],"categories":[],"categories_nodes":[],"categories_segments":[],"categories_sizes":[],"default_left":[0,0,0,0,0,0,0,0,0,0,0,0,0,0,0,0,0,0,0,0,0,0,0,0,0,0,0,0,0,0,0,0,0,0,0,0,0,0,0,0,0,0,0,0,0,0,0,0,0,0,0,0,0,0,0,0,0,0,0,0,0,0,0,0,0,0,0,0,0,0,0,0,0,0,0,0,0,0,0,0,0,0,0,0,0,0,0,0,0,0,0,0,0,0,0,0,0,0,0,0,0,0,0,0,0,0,0,0,0,0,0,0,0,0,0,0,0,0,0,0,0,0,0,0,0,0,0,0,0,0,0,0,0,0,0,0,0,0,0,0,0,0,0,0,0,0,0,0,0,0,0,0,0,0,0,0,0,0,0,0,0,0,0,0,0,0,0,0,0,0,0,0,0,0,0,0,0,0,0,0,0,0,0,0,0,0,0,0,0],"id":1,"left_children":[1,3,5,7,9,11,13,15,17,19,21,23,25,27,29,31,33,35,37,39,41,43,45,47,49,51,53,55,57,59,61,63,65,67,69,71,73,75,77,79,81,83,85,87,89,91,93,95,97,99,101,-1,-1,103,105,-1,-1,107,109,111,113,-1,-1,115,117,119,121,123,125,127,129,131,133,135,137,139,141,143,145,-1,-1,147,-1,149,151,153,155,157,159,161,163,-1,-1,165,167,-1,169,-1,-1,171,-1,173,175,177,-1,179,181,-1,183,-1,-1,-1,185,187,-1,-1,-1,-1,-1,-1,-1,-1,-1,-1,-1,-1,-1,-1,-1,-1,-1,-1,-1,-1,-1,-1,-1,-1,-1,-1,-1,-1,-1,-1,-1,-1,-1,-1,-1,-1,-1,-1,-1,-1,-1,-1,-1,-1,-1,-1,-1,-1,-1,-1,-1,-1,-1,-1,-1,-1,-1,-1,-1,-1,-1,-1,-1,-1,-1,-1,-1,-1,-1,-1,-1,-1,-1,-1,-1],"loss_changes":[3.2860588E7,1.1659984E7,7.975832E6,1.7332778E6,2.725603E6,4.21505E5,3.335724E6,3.4615525E5,2.0766503E5,4.29179E5,3.41941E5,2.475645E5,2.36818E5,1.723318E6,5.31844E5,1.8374628E5,2.4835075E5,8.6071336E4,9.451881E4,1.9972725E5,1.9659775E5,1.939035E5,1.5961775E5,2.9555038E5,1.88093E5,2.5803912E5,1.54403E5,5.9566625E5,2.21944E6,8.14253E5,1.836715E5,7.4195875E4,3.977777E3,1.4724866E5,1.2662E5,3.686861E4,6.5048477E4,1.17494234E5,6.0758656E4,1.2693775E5,1.5895825E5,7.309875E4,8.64525E4,1.4003712E5,1.280955E5,1.979044E3,8.65765E4,9.231709E4,8.7131875E4,1.2868175E5,3.7791375E4,0E0,0E0,1.875995E5,1.2322E5,0E0,0E0,7.37978E5,4.9839975E5,1.33238E5,2.24856E5,0E0,0E0,3.2126344E4,3.539614E4,2.6420942E3,2.8437847E3,5.4157094E4,1.7128106E5,7.30795E4,4.029625E4,6.755611E4,4.0187434E3,2.2853414E4,3.8133887E4,8.1966734E4,1.666957E4,4.4578625E4,3.0008734E4,0E0,0E0,1.2447925E5,0E0,4.512722E4,3.4771062E4,4.0196125E4,6.3738875E4,5.168125E4,2.319946E4,8.4058625E4,1.02195E5,0E0,0E0,2.1772469E5,9.2293125E4,0E0,3.276407E4,0E0,0E0,1.340365E5,0E0,2.573525E4,5.8947207E3,6.57185E4,0E0,9.428919E4,1.6103E4,0E0,2.13214E5,0E0,0E0,0E0,1.9362812E3,5.92545E4,0E0,0E0,0E0,0E0,0E0,0E0,0E0,0E0,0E0,0E0,0E0,0E0,0E0,0E0,0E0,0E0,0E0,0E0,0E0,0E0,0E0,0E0,0E0,0E0,0E0,0E0,0E0,0E0,0E0,0E0,0E0,0E0,0E0,0E0,0E0,0E0,0E0,0E0,0E0,0E0,0E0,0E0,0E0,0E0,0E0,0E0,0E0,0E0,0E0,0E0,0E0,0E0,0E0,0E0,0E0,0E0,0E0,0E0,0E0,0E0,0E0,0E0,0E0,0E0,0E0,0E0,0E0,0E0,0E0,0E0,0E0,0E0,0E0,0E0,0E0],"parents":[2147483647,0,0,1,1,2,2,3,3,4,4,5,5,6,6,7,7,8,8,9,9,10,10,11,11,12,12,13,13,14,14,15,15,16,16,17,17,18,18,19,19,20,20,21,21,22,22,23,23,24,24,25,25,26,26,27,27,28,28,29,29,30,30,31,31,32,32,33,33,34,34,35,35,36,36,37,37,38,38,39,39,40,40,41,41,42,42,43,43,44,44,45,45,46,46,47,47,48,48,49,49,50,50,53,53,54,54,57,57,58,58,59,59,60,60,63,63,64,64,65,65,66,66,67,67,68,68,69,69,70,70,71,71,72,72,73,73,74,74,75,75,76,76,77,77,78,78,81,81,83,83,84,84,85,85,86,86,87,87,88,88,89,89,90,90,93,93,94,94,96,96,99,99,101,101,102,102,103,103,105,105,106,106,108,108,112,112,113,113],"right_children":[2,4,6,8,10,12,14,16,18,20,22,24,26,28,30,32,34,36,38,40,42,44,46,48,50,52,54,56,58,60,62,64,66,68,70,72,74,76,78,80,82,84,86,88,90,92,94,96,98,100,102,-1,-1,104,106,-1,-1,108,110,112,114,-1,-1,116,118,120,122,124,126,128,130,132,134,136,138,140,142,144,146,-1,-1,148,-1,150,152,154,156,158,160,162,164,-1,-1,166,168,-1,170,-1,-1,172,-1,174,176,178,-1,180,182,-1,184,-1,-1,-1,186,188,-1,-1,-1,-1,-1,-1,-1,-1,-1,-1,-1,-1,-1,-1,-1,-1,-1,-1,-1,-1,-1,-1,-1,-1,-1,-1,-1,-1,-1,-1,-1,-1,-1,-1,-1,-1,-1,-1,-1,-1,-1,-1,-1,-1,-1,-1,-1,-1,-1,-1,-1,-1,-1,-1,-1,-1,-1,-1,-1,-1,-1,-1,-1,-1,-1,-1,-1,-1,-1,-1,-1,-1,-1,-1,-1],"split_conditions":[1.83E2,3.5E1,3.5633334E2,9.333333E0,9.6666664E1,2.6166666E2,9.74E0,-9.886364E-1,2.0333334E1,2.796E1,1.83E2,7E1,7.79E0,4.9800184E-2,1E1,6E0,2.59E0,6.7E-1,2.2195E1,-9.9270076E-1,6.6E1,1E1,3.8E-1,2.13E2,4.8E1,2.4E2,7E0,4.78E2,5.0239235E-2,5E0,4.9800184E-2,1.3333334E0,8.3E1,3.3333334E-1,1.6666666E0,2.379E1,3E0,-9.74359E-1,5.0167225E-2,6E0,4.89E2,9E0,1.9E1,8E0,1.26E2,7.01E0,-8.4615386E-1,3E0,3E0,1E1,3.72E2,1.485637E1,4.5548754E0,1.25E0,3.472E1,1.4953809E1,2.1991649E0,5E0,5.038023E-2,3E0,4.78E2,1.8541296E-1,6.686211E0,1.352E1,3.1665728E0,5.428E1,1E0,7.6E-1,5.9E-1,1.1E2,1E0,3.0167142E-2,1.3E1,4.856E1,-1.8518518E-1,5.8E1,3E0,3E0,1.44E2,5.273764E0,8.400548E-1,1E0,5.5464253E0,1.01E2,4.8333332E1,1E0,2.14E2,1.74E0,4.9983736E-2,-1.0344828E-1,5.0266564E-2,1.23744406E-1,8.9126194E-1,3E0,7.245E1,6.324122E0,1.71E2,6.0025773E0,1.1927602E1,4.78E2,1.0687695E0,1.77E2,1.2E1,5E0,3.028767E0,4.975473E-2,1.1863E2,1.6498985E1,5.007446E-2,2.7929397E0,1.5610448E1,7.916147E0,7.6E-1,3.58E2,1.5067866E1,3.4315348E-1,1.471025E0,5.1704183E0,1.6139197E0,2.5295191E-3,-3.1388533E-1,4.6051297E-1,-2.8636372E-1,1.2847777E-2,-2.21201E-1,1.1392632E0,9.914935E-3,-3.2194242E-1,1.409051E0,-1.0813317E-1,-2.419014E-1,2.3759532E0,5.859021E-1,3.3152243E-1,-2.3946941E-1,3.2520244E-1,1.1002558E-1,1.4605623E-1,-5.7561137E-2,1.136708E0,4.7762446E0,9.3546134E-1,4.3148863E-1,4.3929848E-1,1.939127E-1,6.8236244E-1,2.5737872E0,1.8302008E0,1.1264871E0,8.6692315E-1,1.8755119E0,4.5068616E-1,6.9361293E-1,1.7133757E0,3.4759676E0,9.8383504E-1,2.984084E0,3.5550165E0,5.4702225E0,9.024128E-1,2.6284084E0,2.7539902E0,1.5956111E0,2.3495045E0,3.7068365E0,9.989737E0,2.3038206E0,3.3019676E0,5.274626E0,1.0659592E0,4.1076913E0,5.407955E0,3.107488E-1,2.27305E0,3.5960093E0,1.8806591E0,4.6942112E-1,6.926351E0,1.0560158E1,5.279393E-1,4.425136E0,5.409572E0,8.50898E0,2.2208822E1,3.5749687E1,2.9136772E0,1.4036771E0,1.2063573E1,7.0444374E0],"split_indices":[11,11,11,11,11,11,0,12,11,0,9,7,0,3,4,4,2,2,1,12,11,7,2,11,9,9,4,7,3,4,3,11,9,11,11,0,7,12,3,4,9,7,7,4,11,1,12,4,4,4,9,0,0,12,0,0,0,4,3,4,7,0,0,0,11,0,7,2,2,9,7,3,7,0,12,9,7,7,9,0,0,7,0,9,11,13,9,2,3,12,3,0,0,4,0,0,9,0,0,7,0,7,4,4,0,3,0,0,3,0,0,0,2,7,0,0,0,0,0,0,0,0,0,0,0,0,0,0,0,0,0,0,0,0,0,0,0,0,0,0,0,0,0,0,0,0,0,0,0,0,0,0,0,0,0,0,0,0,0,0,0,0,0,0,0,0,0,0,0,0,0,0,0,0,0,0,0,0,0,0,0,0,0,0,0,0,0,0,0],"split_type":[0,0,0,0,0,0,0,0,0,0,0,0,0,0,0,0,0,0,0,0,0,0,0,0,0,0,0,0,0,0,0,0,0,0,0,0,0,0,0,0,0,0,0,0,0,0,0,0,0,0,0,0,0,0,0,0,0,0,0,0,0,0,0,0,0,0,0,0,0,0,0,0,0,0,0,0,0,0,0,0,0,0,0,0,0,0,0,0,0,0,0,0,0,0,0,0,0,0,0,0,0,0,0,0,0,0,0,0,0,0,0,0,0,0,0,0,0,0,0,0,0,0,0,0,0,0,0,0,0,0,0,0,0,0,0,0,0,0,0,0,0,0,0,0,0,0,0,0,0,0,0,0,0,0,0,0,0,0,0,0,0,0,0,0,0,0,0,0,0,0,0,0,0,0,0,0,0,0,0,0,0,0,0,0,0,0,0,0,0],"sum_hessian":[6.9704E4,6.9165E4,5.39E2,6.3342E4,5.823E3,3.95E2,1.44E2,5.0929E4,1.2413E4,4.721E3,1.102E3,2.67E2,1.28E2,5.5E1,8.9E1,3.09E2,5.062E4,7.677E3,4.736E3,1.385E3,3.336E3,9.53E2,1.49E2,4.1E1,2.26E2,1.1E1,1.17E2,1.3E1,4.2E1,6.6E1,2.3E1,1.59E2,1.5E2,1.0999E4,3.9621E4,1.32E2,7.545E3,2.7E2,4.466E3,2.7E1,1.358E3,2.659E3,6.77E2,1.27E2,8.26E2,1.2E1,1.37E2,2.4E1,1.7E1,1.13E2,1.13E2,6E0,5E0,5.1E1,6.6E1,6E0,7E0,3.1E1,1.1E1,1.7E1,4.9E1,5E0,1.8E1,1.47E2,1.2E1,1.23E2,2.7E1,8.371E3,2.628E3,3.1056E4,8.565E3,8.9E1,4.3E1,2.062E3,5.483E3,2.3E1,2.47E2,4.248E3,2.18E2,1.8E1,9E0,1.351E3,7E0,4.11E2,2.248E3,1.05E2,5.72E2,9.6E1,3.1E1,4.11E2,4.15E2,6E0,6E0,1.4E1,1.23E2,1E1,1.4E1,8E0,9E0,1.05E2,8E0,1E2,1.3E1,4.2E1,9E0,4.1E1,2.5E1,1E1,2.1E1,6E0,5E0,7E0,1E1,2.1E1,2.8E1,2.9E1,1.18E2,6E0,6E0,9.2E1,3.1E1,2.2E1,5E0,1.012E3,7.359E3,1.26E2,2.502E3,3.1035E4,2.1E1,3.299E3,5.266E3,2.7E1,6.2E1,2.4E1,1.9E1,6.48E2,1.414E3,1.015E3,4.468E3,1.3E1,1E1,1.04E2,1.43E2,8.28E2,3.42E3,2.11E2,7E0,2.92E2,1.059E3,3.66E2,4.5E1,1.371E3,8.77E2,9.1E1,1.4E1,5.58E2,1.4E1,7.5E1,2.1E1,1.9E1,1.2E1,7E1,3.41E2,3.53E2,6.2E1,7E0,7E0,8.9E1,3.4E1,9E0,5E0,1E2,5E0,2.5E1,7.5E1,8E0,5E0,2.9E1,1.3E1,7E0,3.4E1,1.7E1,8E0,1.1E1,1E1,5E0,5E0,9E0,1.2E1],"tree_param":{"num_deleted":"0","num_feature":"14","num_nodes":"189","size_leaf_vector":"1"}},{"base_weights":[1.1258535E-2,-1.8332335E0,2.3478503E2,-5.630021E0,3.9897476E1,1.6498563E2,4.384348E2,-7.766842E0,8.050371E0,2.888213E1,8.0478455E1,1.4606705E2,2.4520883E2,5.1344885E2,2.1978719E2,-8.247043E0,1.9027842E1,6.0400023E0,2.5046198E1,2.5324291E1,7.09599E1,7.411015E1,1.3520311E2,6.744715E1,1.5884024E2,1.2420413E1,2.192595E2,5.8771765E2,2.1666145E2,1.3675462E2,3.464225E2,-8.96938E0,-2.190139E0,2.8694796E1,3.874092E0,3.5481017E0,1.0824657E1,2.3403059E1,8.438381E1,2.115224E1,4.573678E1,6.3601112E1,1.7377295E2,6.6377205E1,1.01236046E2,1.2286649E2,8.017346E0,1.2095414E2,3.6910717E1,2.9222916E2,1.4762772E2,1.7014555E2,3.210743E2,7.71122E2,4.522041E2,2.124729E0,9.365097E0,-3.0920184E-1,1.760027E2,4.701745E0,1.4072778E1,-5.1051946E0,-9.912078E0,-3.0710979E0,5.5292964E0,1.6031973E1,4.691276E1,-8.8779914E-1,4.1879364E1,2.649214E0,1.4459003E1,9.815032E0,2.550738E1,3.5986557E1,1.8908747E1,1.0182273E2,1.6352543E0,1.0755495E1,2.4137428E1,3.0599781E1,5.7487797E1,4.6720116E1,8.1350044E1,9.844975E0,9.9971565E1,5.9198948E1,9.382244E1,9.05045E1,1.5043689E2,1.0126692E2,1.7543004E2,5.0144534E0,9.3208873E-1,1.2965592E1,8.1436356E1,6.464493E0,1.2447711E1,1.3391302E2,1.8167557E2,1.9198952E2,2.037886E0,1.1386773E1,2.3339185E2,1.0106872E1,2.6252031E1,6.108637E2,3.7793915E2,6.64231E0,1.3105573E2,5.5633686E-2,-1.8197535E-1,-3.1203413E-1,-1.625237E-1,-1.3907729E-1,3.2970756E-2,1.1799906E-1,4.040433E-1,1.3120334E-1,8.319539E-1,1.8913686E0,8.9527655E-1,9.906889E-1,-5.1299475E-2,5.364835E0,4.2253202E-1,1.8681116E-1,3.8115222E-2,1.462021E0,3.9368284E-1,4.0247187E-1,2.3206827E-1,1.2652375E0,6.561593E-1,1.02129E0,3.0953825E0,5.3179777E-1,1.6612049E0,1.9407927E0,3.6471243E0,2.5177498E0,2.8493705E-1,7.0611453E-1,2.2511234E0,2.3729403E0,8.1553626E-1,1.6125214E0,4.1422424E0,3.3564641E0,1.2471753E0,2.2719026E0,4.036254E0,1.019085E0,4.2829814E0,1.5841929E0,2.294416E0,4.24146E0,2.2961135E0,3.3773997E0,2.0194008E0,5.055295E0,1.5765193E0,4.6507186E-1,3.2958975E0,2.6728241E0,6.122687E0,1.553393E0,-4.4709846E-2,1.4746906E0,3.0038092E0,4.4516063E0,2.4999633E0,4.9464664E0,7.8399196E0,6.6405044E0,2.5409598E0,3.1548567E0,9.681195E0,9.464973E0,2.2196657E1,1.2257252E1,4.6994085E0,2.1497972E0,5.354747E0],"categories":[],"categories_nodes":[],"categories_segments":[],"categories_sizes":[],"default_left":[0,0,0,0,0,0,0,0,0,0,0,0,0,0,0,0,0,0,0,0,0,0,0,0,0,0,0,0,0,0,0,0,0,0,0,0,0,0,0,0,0,0,0,0,0,0,0,0,0,0,0,0,0,0,0,0,0,0,0,0,0,0,0,0,0,0,0,0,0,0,0,0,0,0,0,0,0,0,0,0,0,0,0,0,0,0,0,0,0,0,0,0,0,0,0,0,0,0,0,0,0,0,0,0,0,0,0,0,0,0,0,0,0,0,0,0,0,0,0,0,0,0,0,0,0,0,0,0,0,0,0,0,0,0,0,0,0,0,0,0,0,0,0,0,0,0,0,0,0,0,0,0,0,0,0,0,0,0,0,0,0,0,0,0,0,0,0,0,0,0,0,0,0,0,0,0,0,0,0,0,0,0,0],"id":2,"left_children":[1,3,5,7,9,11,13,15,17,19,21,23,25,27,29,31,33,35,37,39,41,43,45,47,49,-1,51,53,55,57,59,61,63,65,67,69,71,73,75,77,79,81,83,85,87,89,-1,91,93,95,97,99,101,103,105,-1,-1,-1,107,-1,-1,109,111,113,115,117,119,121,123,125,127,129,131,133,135,137,-1,139,141,143,145,147,149,-1,151,153,155,157,159,161,163,-1,-1,165,167,-1,-1,169,171,173,-1,-1,175,-1,-1,177,179,-1,181,-1,-1,-1,-1,-1,-1,-1,-1,-1,-1,-1,-1,-1,-1,-1,-1,-1,-1,-1,-1,-1,-1,-1,-1,-1,-1,-1,-1,-1,-1,-1,-1,-1,-1,-1,-1,-1,-1,-1,-1,-1,-1,-1,-1,-1,-1,-1,-1,-1,-1,-1,-1,-1,-1,-1,-1,-1,-1,-1,-1,-1,-1,-1,-1,-1,-1,-1,-1,-1,-1,-1,-1,-1,-1],"loss_changes":[3.0164606E7,1.0950985E7,7.646152E6,1.8520028E6,2.574251E6,5.80334E5,2.150504E6,7.051805E5,2.922885E5,6.7710925E5,4.18618E5,3.21663E5,2.420685E5,2.12087E6,3.4162625E5,2.3549275E5,1.4124897E5,9.1229875E4,8.6251875E4,3.5525825E5,2.5599662E5,2.24842E5,1.7400225E5,7.394753E4,3.81573E5,0E0,2.85357E5,1.664328E6,2.8428344E5,1.4035562E5,2.5220238E5,1.7514275E5,3.9031234E4,1.351185E5,6.826959E4,4.934162E4,3.8599938E4,4.919475E4,6.9380156E3,1.07587875E5,1.243455E5,9.53605E4,2.2922138E5,1.64252E5,1.14665E5,1.16178375E5,0E0,6.5373562E4,3.3052195E4,1.08270625E5,9.8916E4,9.4106875E4,1.904275E4,1.19456E6,3.46392E5,0E0,0E0,0E0,9.7254375E3,0E0,0E0,6.3085453E4,8.49245E4,3.361156E4,7.39542E3,4.748008E4,6.4478625E4,9.421308E3,1.5733406E5,2.294352E4,1.6895586E4,1.8268125E4,9.250617E3,2.6640781E4,2.7116844E4,2.3819375E3,0E0,7.0691125E4,8.06895E4,4.9516625E4,1.12420875E5,5.3027125E4,3.7619875E4,0E0,4.3149562E4,7.1733E4,1.3466588E5,9.5819E4,6.54245E4,6.1688688E4,6.3440875E4,0E0,0E0,1.242628E4,1.6998594E3,0E0,0E0,1.2817475E5,5.4519E4,1.0407625E5,0E0,0E0,9.200175E4,0E0,0E0,2.999915E5,1.80003E5,0E0,2.0994203E4,0E0,0E0,0E0,0E0,0E0,0E0,0E0,0E0,0E0,0E0,0E0,0E0,0E0,0E0,0E0,0E0,0E0,0E0,0E0,0E0,0E0,0E0,0E0,0E0,0E0,0E0,0E0,0E0,0E0,0E0,0E0,0E0,0E0,0E0,0E0,0E0,0E0,0E0,0E0,0E0,0E0,0E0,0E0,0E0,0E0,0E0,0E0,0E0,0E0,0E0,0E0,0E0,0E0,0E0,0E0,0E0,0E0,0E0,0E0,0E0,0E0,0E0,0E0,0E0,0E0,0E0,0E0,0E0,0E0,0E0,0E0,0E0,0E0,0E0],"parents":[2147483647,0,0,1,1,2,2,3,3,4,4,5,5,6,6,7,7,8,8,9,9,10,10,11,11,12,12,13,13,14,14,15,15,16,16,17,17,18,18,19,19,20,20,21,21,22,22,23,23,24,24,26,26,27,27,28,28,29,29,30,30,31,31,32,32,33,33,34,34,35,35,36,36,37,37,38,38,39,39,40,40,41,41,42,42,43,43,44,44,45,45,47,47,48,48,49,49,50,50,51,51,52,52,53,53,54,54,58,58,61,61,62,62,63,63,64,64,65,65,66,66,67,67,68,68,69,69,70,70,71,71,72,72,73,73,74,74,75,75,77,77,78,78,79,79,80,80,81,81,82,82,84,84,85,85,86,86,87,87,88,88,89,89,90,90,93,93,94,94,97,97,98,98,99,99,102,102,105,105,106,106,108,108],"right_children":[2,4,6,8,10,12,14,16,18,20,22,24,26,28,30,32,34,36,38,40,42,44,46,48,50,-1,52,54,56,58,60,62,64,66,68,70,72,74,76,78,80,82,84,86,88,90,-1,92,94,96,98,100,102,104,106,-1,-1,-1,108,-1,-1,110,112,114,116,118,120,122,124,126,128,130,132,134,136,138,-1,140,142,144,146,148,150,-1,152,154,156,158,160,162,164,-1,-1,166,168,-1,-1,170,172,174,-1,-1,176,-1,-1,178,180,-1,182,-1,-1,-1,-1,-1,-1,-1,-1,-1,-1,-1,-1,-1,-1,-1,-1,-1,-1,-1,-1,-1,-1,-1,-1,-1,-1,-1,-1,-1,-1,-1,-1,-1,-1,-1,-1,-1,-1,-1,-1,-1,-1,-1,-1,-1,-1,-1,-1,-1,-1,-1,-1,-1,-1,-1,-1,-1,-1,-1,-1,-1,-1,-1,-1,-1,-1,-1,-1,-1,-1,-1,-1,-1,-1],"split_conditions":[1.83E2,3.5E1,3.5633334E2,1.3E1,1.06E2,3.58E2,4E0,5.4E1,5E1,1.01E2,1.71E2,8.1E1,8.18E0,5.0239235E-2,5.0099757E-2,8.333333E0,3E0,2.8E1,1.22E2,8E1,3.97E2,1.93E2,3.97E2,1E0,4E1,1.2420413E1,4.499E1,1.023E1,1.3102E2,3.0013192E-2,3.58E2,2.41E0,2.2E1,9.6E1,3E0,3.2E1,5.2E1,3.49E1,1.71E2,9E0,4.9E1,6.1E1,2E0,1.26E2,5.0213676E-2,2.1E2,8.017346E0,1E0,4.6E1,2E0,5.0266564E-2,1E0,9.171E1,4.9800184E-2,1.58E2,2.124729E0,9.365097E0,-3.0920184E-1,4.78E2,4.701745E0,1.4072778E1,7.6E-1,3E0,1.9333334E1,4.5E1,3.3333334E-1,3.17E1,8.18E0,2.683E1,1E0,1.923E1,6.078E1,1.4E1,1.53E2,1E-1,4.996066E-2,1.6352543E0,3.4E-1,1.83E2,9.973327E-3,1.63E2,1.023E1,2.1E2,9.844975E0,6.1E1,4.5E1,1.11E2,1.4E1,2.8395E2,1.023E1,1.17E2,5.0144534E0,9.3208873E-1,1.56E2,2.13E2,6.464493E0,1.2447711E1,4E0,3.05E2,4E0,2.037886E0,1.1386773E1,2.94E2,1.0106872E1,2.6252031E1,2E0,3.36E2,6.64231E0,1.158E1,5.5633686E-2,-1.8197535E-1,-3.1203413E-1,-1.625237E-1,-1.3907729E-1,3.2970756E-2,1.1799906E-1,4.040433E-1,1.3120334E-1,8.319539E-1,1.8913686E0,8.9527655E-1,9.906889E-1,-5.1299475E-2,5.364835E0,4.2253202E-1,1.8681116E-1,3.8115222E-2,1.462021E0,3.9368284E-1,4.0247187E-1,2.3206827E-1,1.2652375E0,6.561593E-1,1.02129E0,3.0953825E0,5.3179777E-1,1.6612049E0,1.9407927E0,3.6471243E0,2.5177498E0,2.8493705E-1,7.0611453E-1,2.2511234E0,2.3729403E0,8.1553626E-1,1.6125214E0,4.1422424E0,3.3564641E0,1.2471753E0,2.2719026E0,4.036254E0,1.019085E0,4.2829814E0,1.5841929E0,2.294416E0,4.24146E0,2.2961135E0,3.3773997E0,2.0194008E0,5.055295E0,1.5765193E0,4.6507186E-1,3.2958975E0,2.6728241E0,6.122687E0,1.553393E0,-4.4709846E-2,1.4746906E0,3.0038092E0,4.4516063E0,2.4999633E0,4.9464664E0,7.8399196E0,6.6405044E0,2.5409598E0,3.1548567E0,9.681195E0,9.464973E0,2.2196657E1,1.2257252E1,4.6994085E0,2.1497972E0,5.354747E0],"split_indices":[11,11,11,6,6,6,5,10,6,10,9,6,1,3,3,11,5,6,9,11,10,6,10,9,7,0,1,1,1,3,6,2,10,10,6,10,10,1,9,6,6,9,5,11,3,6,0,6,6,5,3,10,1,3,8,0,0,0,7,0,0,2,6,11,10,11,1,1,1,7,1,1,11,10,3,3,0,2,9,3,11,1,7,0,9,10,7,8,1,1,11,0,0,7,11,0,0,5,9,5,0,0,7,0,0,5,10,0,1,0,0,0,0,0,0,0,0,0,0,0,0,0,0,0,0,0,0,0,0,0,0,0,0,0,0,0,0,0,0,0,0,0,0,0,0,0,0,0,0,0,0,0,0,0,0,0,0,0,0,0,0,0,0,0,0,0,0,0,0,0,0,0,0,0,0,0,0,0,0,0,0,0,0],"split_type":[0,0,0,0,0,0,0,0,0,0,0,0,0,0,0,0,0,0,0,0,0,0,0,0,0,0,0,0,0,0,0,0,0,0,0,0,0,0,0,0,0,0,0,0,0,0,0,0,0,0,0,0,0,0,0,0,0,0,0,0,0,0,0,0,0,0,0,0,0,0,0,0,0,0,0,0,0,0,0,0,0,0,0,0,0,0,0,0,0,0,0,0,0,0,0,0,0,0,0,0,0,0,0,0,0,0,0,0,0,0,0,0,0,0,0,0,0,0,0,0,0,0,0,0,0,0,0,0,0,0,0,0,0,0,0,0,0,0,0,0,0,0,0,0,0,0,0,0,0,0,0,0,0,0,0,0,0,0,0,0,0,0,0,0,0,0,0,0,0,0,0,0,0,0,0,0,0,0,0,0,0,0,0],"sum_hessian":[6.9656E4,6.9114E4,5.42E2,6.3351E4,5.763E3,4.05E2,1.37E2,5.4793E4,8.558E3,4.534E3,1.229E3,3.3E2,7.5E1,1.01E2,3.6E1,5.3829E4,9.64E2,7.654E3,9.04E2,4.182E3,3.52E2,1.103E3,1.26E2,4.7E1,2.83E2,8E0,6.7E1,8E1,2.1E1,2.3E1,1.3E1,4.8093E4,5.736E3,5.88E2,3.76E2,5.034E3,2.62E3,8.81E2,2.3E1,3.474E3,7.08E2,3.3E2,2.2E1,8.61E2,2.42E2,1.17E2,9E0,1.6E1,3.1E1,2E1,2.63E2,4.7E1,2E1,3.2E1,4.8E1,9E0,1.2E1,5E0,1.8E1,6E0,7E0,9.433E3,3.866E4,5.149E3,5.87E2,3.48E2,2.4E2,3.35E2,4.1E1,4.652E3,3.82E2,2.453E3,1.67E2,2.3E2,6.51E2,1.3E1,1E1,7.76E2,2.698E3,3.11E2,3.97E2,1.71E2,1.59E2,6E0,1.6E1,6.85E2,1.76E2,2.01E2,4.1E1,8.5E1,3.2E1,1E1,6E0,2.1E1,1E1,1.4E1,6E0,1.91E2,7.2E1,3.8E1,9E0,1E1,1E1,7E0,2.5E1,1.3E1,3.5E1,7E0,1.1E1,1.144E3,8.289E3,3.4865E4,3.795E3,3.744E3,1.405E3,4.9E2,9.7E1,1.75E2,1.73E2,1.22E2,1.18E2,7E0,3.28E2,6E0,3.5E1,1.293E3,3.359E3,1.3E1,3.69E2,8.96E2,1.557E3,2.8E1,1.39E2,2.25E2,5E0,6.32E2,1.9E1,6E0,7E0,1.2E1,7.64E2,2.668E3,3E1,1.9E1,2.92E2,3.81E2,1.6E1,1.1E1,1.6E2,1.46E2,1.3E1,7E0,9E0,5.03E2,1.82E2,4.5E1,1.31E2,1.01E2,1E2,3.4E1,7E0,8E0,7.7E1,9E0,2.3E1,5E0,1.6E1,5E0,5E0,1.47E2,4.4E1,6.2E1,1E1,2.9E1,9E0,5E0,5E0,5E0,8E0,3E1,5E0,6E0,5E0],"tree_param":{"num_deleted":"0","num_feature":"14","num_nodes":"183","size_leaf_vector":"1"}},{"base_weights":[5.2152522E-2,-1.5601279E0,2.6926804E2,-5.4963236E0,4.0298138E1,1.7943642E2,4.4192404E2,-8.036988E0,4.091701E0,2.9297585E1,8.2632996E1,3.2605655E2,1.6405626E2,5.8970636E2,3.315484E2,-8.483019E0,8.125397E0,2.8111267E0,2.2564102E1,2.5960964E1,6.8667786E1,7.32632E1,1.18340836E2,6.214917E0,4.198602E2,3.1090268E2,1.553455E2,6.727289E2,2.4417816E2,3.8528708E2,1.4300229E2,-2.1104462E0,-9.083118E0,2.1441277E1,-1.3211309E0,-6.396998E-1,6.2332044E0,9.150903E1,2.1061518E1,4.0720036E1,2.0899696E1,1.0380574E2,5.2285294E1,5.5284008E1,8.7398865E1,1.1159635E2,2.0539983E2,6.650997E0,1.5479562E1,1.5698382E1,3.3823435E0,1.2453281E2,1.8460605E2,3.4873175E2,7.996116E2,2.011026E0,1.1592756E1,1.7030212E2,4.5339868E2,6.7060244E-1,5.7931542E0,8.102324E0,-3.5680678E0,-9.968295E0,-6.2273726E0,1.2186794E1,5.540075E1,-5.5917563E0,1.173919E1,4.0054794E1,-9.38787E-1,1.1908825E1,3.3073955E0,3.7218661E0,1.0589186E0,3.0797152E1,1.300805E1,3.26701E1,6.457927E1,1.5051793E1,2.5796974E1,9.237345E1,8.058371E0,4.490787E1,9.4137054E1,7.733349E1,4.1042736E1,1.3274655E2,8.062731E1,1.7658293E2,1.0309943E2,9.221686E0,1.2181547E2,1.4024207E2,5.98523E1,9.055269E1,1.9421706E2,5.5958967E0,1.5223316E1,8.669444E2,1.0563189E1,9.773326E0,7.836424E1,9.047329E0,5.5106805E2,1.0831197E-1,8.815755E-1,-1.3935792E-1,1.2635833E-1,-2.6937237E-1,-3.2875305E-1,-1.04032464E-1,-2.5012448E-1,2.4423254E-1,6.2036556E-1,4.42346E-1,2.01513E0,3.65657E-2,-2.1027823E-1,1.6726473E-1,1.5404364E0,3.9960406E0,6.691972E-1,1.0436497E-1,-1.0560263E-1,6.6074324E-1,2.3795371E-1,8.5506186E-2,4.344931E-1,7.7079004E-1,1.7780446E0,5.840156E-2,5.242029E-1,2.4859369E0,8.968954E-1,2.5968118E0,1.5120338E0,8.8770413E-1,3.9238364E-1,1.9128442E-1,8.228792E-1,2.3211467E0,6.6104283E0,1.6002355E0,8.262068E-1,3.155119E0,5.875541E-1,2.6421344E0,1.0203351E0,9.620842E-1,1.786827E0,4.37302E0,4.568849E-1,1.0261636E0,2.6410346E0,3.584668E0,7.6792336E0,3.958005E0,2.7006512E0,4.609817E0,2.0895336E0,5.3302107E0,2.6632268E0,2.3848598E0,6.728465E-1,1.4187307E0,3.6259189E0,5.1849403E0,7.855847E0,1.4544899E1,3.0672699E1,3.7431414E0,3.3435583E-1,1.8082798E1,9.296088E0],"categories":[],"categories_nodes":[],"categories_segments":[],"categories_sizes":[],"default_left":[0,0,0,0,0,0,0,0,0,0,0,0,0,0,0,0,0,0,0,0,0,0,0,0,0,0,0,0,0,0,0,0,0,0,0,0,0,0,0,0,0,0,0,0,0,0,0,0,0,0,0,0,0,0,0,0,0,0,0,0,0,0,0,0,0,0,0,0,0,0,0,0,0,0,0,0,0,0,0,0,0,0,0,0,0,0,0,0,0,0,0,0,0,0,0,0,0,0,0,0,0,0,0,0,0,0,0,0,0,0,0,0,0,0,0,0,0,0,0,0,0,0,0,0,0,0,0,0,0,0,0,0,0,0,0,0,0,0,0,0,0,0,0,0,0,0,0,0,0,0,0,0,0,0,0,0,0,0,0,0,0,0,0,0,0,0,0,0,0,0,0,0,0,0,0],"id":3,"left_children":[1,3,5,7,9,11,13,15,17,19,21,23,25,27,29,31,33,35,37,39,41,43,45,-1,47,49,51,53,55,57,59,61,63,65,67,69,71,73,75,77,79,81,83,85,87,89,91,-1,-1,-1,-1,93,95,97,99,-1,-1,101,103,-1,-1,105,107,109,111,113,115,117,119,121,123,125,127,-1,-1,129,131,133,135,137,139,141,-1,143,145,147,149,151,153,155,157,-1,159,161,163,165,167,-1,-1,169,-1,-1,171,-1,173,-1,-1,-1,-1,-1,-1,-1,-1,-1,-1,-1,-1,-1,-1,-1,-1,-1,-1,-1,-1,-1,-1,-1,-1,-1,-1,-1,-1,-1,-1,-1,-1,-1,-1,-1,-1,-1,-1,-1,-1,-1,-1,-1,-1,-1,-1,-1,-1,-1,-1,-1,-1,-1,-1,-1,-1,-1,-1,-1,-1,-1,-1,-1,-1,-1,-1,-1,-1,-1,-1],"loss_changes":[3.0185258E7,1.1390073E7,6.341764E6,1.5392901E6,2.764798E6,5.64341E5,2.104322E6,3.6016875E5,3.1305903E5,6.1798025E5,4.011655E5,1.917715E5,2.714425E5,1.528152E6,7.85824E5,1.85877E5,1.6883897E5,1.4619992E5,8.694641E4,3.2416075E5,2.0639512E5,2.424405E5,1.2560025E5,0E0,1.33159E5,4.88033E5,1.91559E5,1.653188E6,3.016277E5,8.59873E5,1.1655894E5,6.2327848E4,1.122405E5,1.7437056E5,4.3904758E4,7.506915E4,1.0318061E5,2.8542688E4,6.5534125E4,2.1107288E5,9.2454625E4,1.9370888E5,7.387444E4,1.321535E5,1.5601675E5,1.1263425E5,1.07433E5,0E0,0E0,0E0,0E0,1.12499875E5,9.085825E4,2.91428E5,6.88972E5,0E0,0E0,2.1742966E5,5.45483E5,0E0,0E0,4.989149E4,3.0717742E4,3.311625E4,6.1199938E4,1.491123E4,5.594647E4,5.734043E3,4.7070402E4,7.1406555E4,6.9811266E4,8.4871625E4,2.0920898E4,0E0,0E0,5.3690375E4,2.2783633E4,1.1334119E5,8.25745E4,4.2047E4,5.5711E4,1.9410556E5,0E0,3.0306156E4,2.8363E4,7.514281E4,4.1949188E4,1.03345375E5,1.6030775E5,8.722856E4,6.804275E4,0E0,7.548E3,1.6722038E5,1.6584938E4,1.1314516E4,1.1093425E5,0E0,0E0,1.16765E6,0E0,0E0,3.602914E4,0E0,1.62235E5,0E0,0E0,0E0,0E0,0E0,0E0,0E0,0E0,0E0,0E0,0E0,0E0,0E0,0E0,0E0,0E0,0E0,0E0,0E0,0E0,0E0,0E0,0E0,0E0,0E0,0E0,0E0,0E0,0E0,0E0,0E0,0E0,0E0,0E0,0E0,0E0,0E0,0E0,0E0,0E0,0E0,0E0,0E0,0E0,0E0,0E0,0E0,0E0,0E0,0E0,0E0,0E0,0E0,0E0,0E0,0E0,0E0,0E0,0E0,0E0,0E0,0E0,0E0,0E0,0E0,0E0,0E0,0E0,0E0,0E0],"parents":[2147483647,0,0,1,1,2,2,3,3,4,4,5,5,6,6,7,7,8,8,9,9,10,10,11,11,12,12,13,13,14,14,15,15,16,16,17,17,18,18,19,19,20,20,21,21,22,22,24,24,25,25,26,26,27,27,28,28,29,29,30,30,31,31,32,32,33,33,34,34,35,35,36,36,37,37,38,38,39,39,40,40,41,41,42,42,43,43,44,44,45,45,46,46,51,51,52,52,53,53,54,54,57,57,58,58,61,61,62,62,63,63,64,64,65,65,66,66,67,67,68,68,69,69,70,70,71,71,72,72,75,75,76,76,77,77,78,78,79,79,80,80,81,81,83,83,84,84,85,85,86,86,87,87,88,88,89,89,90,90,92,92,93,93,94,94,95,95,96,96,99,99,102,102,104,104],"right_children":[2,4,6,8,10,12,14,16,18,20,22,24,26,28,30,32,34,36,38,40,42,44,46,-1,48,50,52,54,56,58,60,62,64,66,68,70,72,74,76,78,80,82,84,86,88,90,92,-1,-1,-1,-1,94,96,98,100,-1,-1,102,104,-1,-1,106,108,110,112,114,116,118,120,122,124,126,128,-1,-1,130,132,134,136,138,140,142,-1,144,146,148,150,152,154,156,158,-1,160,162,164,166,168,-1,-1,170,-1,-1,172,-1,174,-1,-1,-1,-1,-1,-1,-1,-1,-1,-1,-1,-1,-1,-1,-1,-1,-1,-1,-1,-1,-1,-1,-1,-1,-1,-1,-1,-1,-1,-1,-1,-1,-1,-1,-1,-1,-1,-1,-1,-1,-1,-1,-1,-1,-1,-1,-1,-1,-1,-1,-1,-1,-1,-1,-1,-1,-1,-1,-1,-1,-1,-1,-1,-1,-1,-1,-1,-1,-1,-1],"split_conditions":[2.13E2,3.5E1,3.5633334E2,8.333333E0,9.6666664E1,4E1,1.023E1,3.3E1,4.8E1,1.06E2,1.01E2,3E0,7.01E0,5.0239235E-2,1E1,1.41E0,5E0,1.6333334E1,1.158E1,6.3331456E0,6.3331456E0,1.26E2,5.11E2,6.214917E0,4.9898166E-2,9.9E1,1.3E0,4.9800184E-2,3.58E2,5E0,4.9800184E-2,5E-1,1E0,9.5E1,1.3333334E0,1.522E1,8.50947E0,5.000027E-2,5E0,6.6E1,4.8333332E1,3.97E2,1.41E2,8.1E1,1.0682903E1,5.714233E0,1.3733333E2,6.650997E0,1.5479562E1,1.5698382E1,3.3823435E0,8.7E-1,3E0,3.97E2,1E1,2.011026E0,1.1592756E1,1E0,4.78E2,6.7060244E-1,5.7931542E0,3.3333334E-1,1.3333334E0,7.16E0,1E0,3.3333334E-1,1.735E1,4.9800184E-2,1.11E2,3.0167142E-2,3E0,3E0,5.0266564E-2,3.7218661E0,1.0589186E0,1.01E2,-9.782609E-1,1.023E1,6.6E1,3E0,2E0,8.8E1,8.058371E0,1.68E0,2.67E0,1.77E2,4.39E1,1.2E1,3E0,2.53E2,4E0,9.221686E0,1.83E2,2.58E2,5.0027236E-2,2.53E2,1.44E2,5.5958967E0,1.5223316E1,5E0,1.0563189E1,9.773326E0,4E0,9.047329E0,9.108E1,1.0831197E-1,8.815755E-1,-1.3935792E-1,1.2635833E-1,-2.6937237E-1,-3.2875305E-1,-1.04032464E-1,-2.5012448E-1,2.4423254E-1,6.2036556E-1,4.42346E-1,2.01513E0,3.65657E-2,-2.1027823E-1,1.6726473E-1,1.5404364E0,3.9960406E0,6.691972E-1,1.0436497E-1,-1.0560263E-1,6.6074324E-1,2.3795371E-1,8.5506186E-2,4.344931E-1,7.7079004E-1,1.7780446E0,5.840156E-2,5.242029E-1,2.4859369E0,8.968954E-1,2.5968118E0,1.5120338E0,8.8770413E-1,3.9238364E-1,1.9128442E-1,8.228792E-1,2.3211467E0,6.6104283E0,1.6002355E0,8.262068E-1,3.155119E0,5.875541E-1,2.6421344E0,1.0203351E0,9.620842E-1,1.786827E0,4.37302E0,4.568849E-1,1.0261636E0,2.6410346E0,3.584668E0,7.6792336E0,3.958005E0,2.7006512E0,4.609817E0,2.0895336E0,5.3302107E0,2.6632268E0,2.3848598E0,6.728465E-1,1.4187307E0,3.6259189E0,5.1849403E0,7.855847E0,1.4544899E1,3.0672699E1,3.7431414E0,3.3435583E-1,1.8082798E1,9.296088E0],"split_indices":[11,11,11,11,11,7,1,10,10,10,10,4,1,3,4,2,4,11,1,8,8,11,10,0,3,8,2,3,7,4,3,2,11,10,11,1,8,3,4,11,11,10,8,8,7,8,11,0,0,0,0,2,4,10,4,0,0,7,7,0,0,11,11,2,8,11,1,3,10,3,8,7,3,0,0,10,12,1,7,7,4,11,0,2,2,7,1,4,4,10,4,0,11,8,3,10,10,0,0,4,0,0,4,0,1,0,0,0,0,0,0,0,0,0,0,0,0,0,0,0,0,0,0,0,0,0,0,0,0,0,0,0,0,0,0,0,0,0,0,0,0,0,0,0,0,0,0,0,0,0,0,0,0,0,0,0,0,0,0,0,0,0,0,0,0,0,0,0,0,0,0,0,0,0,0],"split_type":[0,0,0,0,0,0,0,0,0,0,0,0,0,0,0,0,0,0,0,0,0,0,0,0,0,0,0,0,0,0,0,0,0,0,0,0,0,0,0,0,0,0,0,0,0,0,0,0,0,0,0,0,0,0,0,0,0,0,0,0,0,0,0,0,0,0,0,0,0,0,0,0,0,0,0,0,0,0,0,0,0,0,0,0,0,0,0,0,0,0,0,0,0,0,0,0,0,0,0,0,0,0,0,0,0,0,0,0,0,0,0,0,0,0,0,0,0,0,0,0,0,0,0,0,0,0,0,0,0,0,0,0,0,0,0,0,0,0,0,0,0,0,0,0,0,0,0,0,0,0,0,0,0,0,0,0,0,0,0,0,0,0,0,0,0,0,0,0,0,0,0,0,0,0,0],"sum_hessian":[6.9541E4,6.9128E4,4.13E2,6.3187E4,5.941E3,2.73E2,1.4E2,4.9951E4,1.3236E4,4.717E3,1.224E3,2.4E1,2.49E2,5.8E1,8.2E1,4.861E4,1.341E3,1.2379E4,8.57E2,4.35E3,3.67E2,9.72E2,2.52E2,1.2E1,1.2E1,1.2E1,2.37E2,4.6E1,1.2E1,6.3E1,1.9E1,4.184E3,4.4426E4,5.56E2,7.85E2,6.164E3,6.215E3,1.7E1,8.4E2,1.109E3,3.241E3,1.15E2,2.52E2,4.3E2,5.42E2,2.36E2,1.6E1,5E0,7E0,5E0,7E0,1.18E2,1.19E2,1.4E1,3.2E1,6E0,6E0,1.6E1,4.7E1,6E0,1.3E1,5.22E2,3.662E3,3.3912E4,1.0514E4,4.38E2,1.18E2,5.92E2,1.93E2,4.4E1,6.12E3,2.113E3,4.102E3,1E1,7E0,3.79E2,4.61E2,8.31E2,2.78E2,1.479E3,1.762E3,1.09E2,6E0,2.16E2,3.6E1,1.67E2,2.63E2,6.8E1,4.74E2,2.5E1,2.11E2,6E0,1E1,9.4E1,2.4E1,1.2E1,1.07E2,8E0,6E0,2.7E1,5E0,5E0,1.1E1,2E1,2.7E1,4.32E2,9E1,3.217E3,4.45E2,1.6969E4,1.6943E4,4.557E3,5.957E3,2.98E2,1.4E2,2.7E1,9.1E1,1.02E2,4.9E2,1.68E2,2.5E1,6E0,3.8E1,2.257E3,3.863E3,5.95E2,1.518E3,3.942E3,1.6E2,3.23E2,5.6E1,1.33E2,3.28E2,4.2E1,7.89E2,1.07E2,1.71E2,1.75E2,1.304E3,1.37E2,1.625E3,9.9E1,1E1,1.44E2,7.2E1,3.1E1,5E0,1.33E2,3.4E1,1.79E2,8.4E1,6.1E1,7E0,6.6E1,4.08E2,1.6E1,9E0,6.3E1,1.48E2,5E0,5E0,5.3E1,4.1E1,1.5E1,9E0,6E0,6E0,8.4E1,2.3E1,9E0,1.8E1,6E0,5E0,2.1E1,6E0],"tree_param":{"num_deleted":"0","num_feature":"14","num_nodes":"175","size_leaf_vector":"1"}},{"base_weights":[1.0421408E-1,-1.6712062E0,2.2040933E2,-5.292324E0,3.6275917E1,1.5867212E2,4.0492285E2,-7.6258545E0,4.428501E0,2.7482468E1,7.616486E1,2.4859102E2,1.4553474E2,5.660927E2,3.0208347E2,-7.8596497E0,3.235564E1,3.2697875E0,2.1113821E1,4.6719654E1,2.2703894E1,7.0667E1,1.3701999E2,6.857507E1,2.9521298E2,1.7770847E2,1.230824E2,6.84171E2,2.2134305E2,3.435863E2,1.4586469E2,-5.1727467E0,-9.407847E0,2.5825993E1,9.916638E1,1.4594425E-1,7.305538E0,1.9378489E1,7.836289E1,4.2370308E1,1.0541863E2,1.8978111E1,3.8316338E1,5.7554405E1,8.444477E1,1.884535E2,1.03343925E2,3.790781E0,2.7704838E-1,6.3085823E0,4.0273413E2,1.5274097E2,2.3570181E2,1.0583772E2,1.5251987E2,7.7155383E2,5.2341094E0,2.0835502E0,9.44628E0,2.5730313E2,3.941288E2,1.3698502E-1,5.779593E0,-6.7334294E0,-9.324132E-1,-1.017765E1,-6.4915104E0,4.1509663E1,1.3985993E0,5.800948E0,4.65523E1,5.7331233E0,-1.5753793E0,1.5962354E1,5.0353584E0,5.0088333E1,1.8067444E1,1.202754E2,2.1696934E1,6.1693947E1,3.649093E1,7.6090817E0,8.93731E1,3.1864769E1,1.6815523E1,5.9967396E1,3.3677216E1,4.8694798E1,8.1168915E1,1.27868065E2,7.801332E1,2.2338094E2,1.9980505E0,-4.527052E-2,1.13655174E2,5.9328814E0,1.5792835E1,1.6095468E2,9.289299E-1,1.5043263E1,1.8753749E2,1.1818923E2,7.2525734E1,1.0492768E2,1.8437889E2,1.2334958E1,8.527636E2,2.971497E2,1.8497221E0,4.4582928E2,6.960757E0,-2.5457285E-2,-2.2242777E-1,4.895871E-1,-5.144318E-2,-3.096134E-1,-1.6590244E-1,-2.0527786E-1,9.738473E-2,2.1243877E0,9.0803605E-1,2.0797819E-1,-3.3654124E-1,2.0760975E0,9.752812E-1,6.412563E-1,1.2155126E-1,-7.241579E-2,1.3008381E-1,9.6220744E-1,4.0776178E-1,1.352384E-1,5.5945665E-1,6.0480875E-1,1.842321E0,6.4794976E-1,3.4355572E-1,2.0046742E0,4.3595448E0,-4.2329844E-2,1.2361612E0,2.5245297E0,1.5867598E0,6.0649794E-1,1.2845697E0,1.5092087E0,3.4322038E0,1.0690314E0,3.9125594E-1,4.451973E-1,7.218273E-1,1.5242242E0,2.9834275E0,9.327467E-1,1.787311E0,1.2812809E0,2.062587E0,3.0611222E0,1.7741832E0,4.2873597E0,7.5172114E-1,2.118285E0,3.417968E0,7.7255077E0,3.9083307E0,2.9962325E0,5.2568974E0,5.2695255E0,2.1844609E0,4.9990163E0,8.137034E0,3.7427013E0,3.3667347E-1,1.2447939E0,4.0849714E0,3.6701026E0,9.837629E-2,4.205597E0,7.044437E0,1.6185854E1,2.8192936E1,5.4844494E0,1.0072168E1,1.1032792E1,1.6955471E1],"categories":[],"categories_nodes":[],"categories_segments":[],"categories_sizes":[],"default_left":[0,0,0,0,0,0,0,0,0,0,0,0,0,0,0,0,0,0,0,0,0,0,0,0,0,0,0,0,0,0,0,0,0,0,0,0,0,0,0,0,0,0,0,0,0,0,0,0,0,0,0,0,0,0,0,0,0,0,0,0,0,0,0,0,0,0,0,0,0,0,0,0,0,0,0,0,0,0,0,0,0,0,0,0,0,0,0,0,0,0,0,0,0,0,0,0,0,0,0,0,0,0,0,0,0,0,0,0,0,0,0,0,0,0,0,0,0,0,0,0,0,0,0,0,0,0,0,0,0,0,0,0,0,0,0,0,0,0,0,0,0,0,0,0,0,0,0,0,0,0,0,0,0,0,0,0,0,0,0,0,0,0,0,0,0,0,0,0,0,0,0,0,0,0,0,0,0,0,0,0,0,0,0,0,0],"id":4,"left_children":[1,3,5,7,9,11,13,15,17,19,21,23,25,27,29,31,33,35,37,39,41,43,45,47,49,51,53,55,57,59,61,63,65,67,69,71,73,75,77,79,81,83,85,87,89,91,93,-1,-1,-1,95,97,99,101,103,105,-1,-1,-1,107,109,-1,-1,111,113,115,117,119,121,-1,123,125,127,129,131,133,135,137,139,141,143,-1,145,147,149,151,153,155,157,159,161,163,-1,-1,165,-1,-1,167,-1,-1,169,171,173,175,177,-1,179,181,-1,183,-1,-1,-1,-1,-1,-1,-1,-1,-1,-1,-1,-1,-1,-1,-1,-1,-1,-1,-1,-1,-1,-1,-1,-1,-1,-1,-1,-1,-1,-1,-1,-1,-1,-1,-1,-1,-1,-1,-1,-1,-1,-1,-1,-1,-1,-1,-1,-1,-1,-1,-1,-1,-1,-1,-1,-1,-1,-1,-1,-1,-1,-1,-1,-1,-1,-1,-1,-1,-1,-1,-1,-1,-1,-1,-1],"loss_changes":[2.7251492E7,9.497488E6,6.280676E6,1.4312938E6,2.109831E6,4.58745E5,2.132778E6,4.7587075E5,2.3608734E5,4.5258875E5,3.539775E5,4.1613975E5,2.439315E5,2.005968E6,5.138995E5,2.103845E5,1.2655666E5,1.4400853E5,7.725322E4,2.4597025E5,2.2932388E5,1.756075E5,1.3465038E5,3.996664E4,2.89638E5,1.79704E5,9.551225E4,1.602318E6,1.9119562E5,1.9507E5,1.3132334E5,1.2238947E5,7.198125E4,1.03760766E5,1.19834875E5,6.194513E4,9.786569E4,3.0130188E4,5.2001484E4,1.01692875E5,1.3663869E5,8.849925E4,7.4407375E4,1.03780375E5,1.2545225E5,1.29796375E5,6.0727938E4,0E0,0E0,0E0,3.268325E5,1.020225E5,4.562575E5,4.9835625E4,1.0040775E5,6.1506E5,0E0,0E0,0E0,1.9992538E5,2.401025E5,0E0,0E0,5.4157875E4,6.720235E4,1.679075E4,2.2945281E4,5.220103E4,7.5481436E3,0E0,3.4656133E3,3.980922E4,2.441698E4,3.9084406E4,2.8273688E4,9.258328E3,1.7058266E4,7.670172E3,5.0209165E3,3.7440562E4,7.16295E4,0E0,5.4862156E4,3.2027781E4,3.8831E4,4.3029844E4,4.0261438E4,4.231375E4,5.7850812E4,9.07495E4,1.0496025E5,4.9044875E4,0E0,0E0,2.5747438E4,0E0,0E0,1.16716E5,0E0,0E0,2.1243E4,7.0241625E4,7.530375E4,5.9752906E4,6.9572625E4,0E0,2.01368E5,4.0048E4,0E0,7.1591E4,0E0,0E0,0E0,0E0,0E0,0E0,0E0,0E0,0E0,0E0,0E0,0E0,0E0,0E0,0E0,0E0,0E0,0E0,0E0,0E0,0E0,0E0,0E0,0E0,0E0,0E0,0E0,0E0,0E0,0E0,0E0,0E0,0E0,0E0,0E0,0E0,0E0,0E0,0E0,0E0,0E0,0E0,0E0,0E0,0E0,0E0,0E0,0E0,0E0,0E0,0E0,0E0,0E0,0E0,0E0,0E0,0E0,0E0,0E0,0E0,0E0,0E0,0E0,0E0,0E0,0E0,0E0,0E0,0E0,0E0,0E0,0E0,0E0,0E0,0E0],"parents":[2147483647,0,0,1,1,2,2,3,3,4,4,5,5,6,6,7,7,8,8,9,9,10,10,11,11,12,12,13,13,14,14,15,15,16,16,17,17,18,18,19,19,20,20,21,21,22,22,23,23,24,24,25,25,26,26,27,27,28,28,29,29,30,30,31,31,32,32,33,33,34,34,35,35,36,36,37,37,38,38,39,39,40,40,41,41,42,42,43,43,44,44,45,45,46,46,50,50,51,51,52,52,53,53,54,54,55,55,59,59,60,60,63,63,64,64,65,65,66,66,67,67,68,68,70,70,71,71,72,72,73,73,74,74,75,75,76,76,77,77,78,78,79,79,80,80,82,82,83,83,84,84,85,85,86,86,87,87,88,88,89,89,90,90,91,91,94,94,97,97,100,100,101,101,102,102,103,103,104,104,106,106,107,107,109,109],"right_children":[2,4,6,8,10,12,14,16,18,20,22,24,26,28,30,32,34,36,38,40,42,44,46,48,50,52,54,56,58,60,62,64,66,68,70,72,74,76,78,80,82,84,86,88,90,92,94,-1,-1,-1,96,98,100,102,104,106,-1,-1,-1,108,110,-1,-1,112,114,116,118,120,122,-1,124,126,128,130,132,134,136,138,140,142,144,-1,146,148,150,152,154,156,158,160,162,164,-1,-1,166,-1,-1,168,-1,-1,170,172,174,176,178,-1,180,182,-1,184,-1,-1,-1,-1,-1,-1,-1,-1,-1,-1,-1,-1,-1,-1,-1,-1,-1,-1,-1,-1,-1,-1,-1,-1,-1,-1,-1,-1,-1,-1,-1,-1,-1,-1,-1,-1,-1,-1,-1,-1,-1,-1,-1,-1,-1,-1,-1,-1,-1,-1,-1,-1,-1,-1,-1,-1,-1,-1,-1,-1,-1,-1,-1,-1,-1,-1,-1,-1,-1,-1,-1,-1,-1,-1,-1],"split_conditions":[1.83E2,3.4E1,3.5633334E2,9.333333E0,9.6666664E1,4E1,9.74E0,9.6E1,4.8E1,2.414E1,2.4E2,3.8E-1,1.7722214E0,4E0,4E0,4.09E0,-9.814815E-1,1.8666666E1,1.44E2,1.69E2,6.8333336E1,1.26E2,1.3733333E2,3E0,2E0,2.6166666E2,2.6166666E2,2.4358974E-1,4.9824834E-2,3.7732894E0,4.9800184E-2,3.3333334E-1,1.6666666E0,3E0,2.564E1,1E0,3E0,1.742E1,1.43E0,1E0,7.79E0,4E0,1.9E1,4.9E1,1.5E1,4E0,7.79E0,3.790781E0,2.7704838E-1,6.3085823E0,4.9824834E-2,4E0,3.0013192E-2,4E0,4.9952198E-2,4.9800184E-2,5.2341094E0,2.0835502E0,9.44628E0,1E0,5.0099757E-2,1.3698502E-1,5.779593E0,8.7E-1,7.9E-1,1.5E1,2.1E1,4.975473E-2,5.428E1,5.800948E0,1.6578226E0,1.15E0,2E1,2.209E1,5.0266564E-2,6.9E1,3E0,2.2666666E1,3.9385E1,4.9634475E-2,2E0,7.6090817E0,6.1E1,4E0,3.7E1,2.4358974E-1,1.15E2,2.56E0,1.15E0,4E0,5.0266564E-2,5.004265E-2,1.9980505E0,-4.527052E-2,9.999662E-2,5.9328814E0,1.5792835E1,2.1276595E-2,9.289299E-1,1.5043263E1,1.2104E2,4.89E2,5.007446E-2,8.4E1,2.6565717E2,1.2334958E1,2E0,4.988345E-2,1.8497221E0,3.05E2,6.960757E0,-2.5457285E-2,-2.2242777E-1,4.895871E-1,-5.144318E-2,-3.096134E-1,-1.6590244E-1,-2.0527786E-1,9.738473E-2,2.1243877E0,9.0803605E-1,2.0797819E-1,-3.3654124E-1,2.0760975E0,9.752812E-1,6.412563E-1,1.2155126E-1,-7.241579E-2,1.3008381E-1,9.6220744E-1,4.0776178E-1,1.352384E-1,5.5945665E-1,6.0480875E-1,1.842321E0,6.4794976E-1,3.4355572E-1,2.0046742E0,4.3595448E0,-4.2329844E-2,1.2361612E0,2.5245297E0,1.5867598E0,6.0649794E-1,1.2845697E0,1.5092087E0,3.4322038E0,1.0690314E0,3.9125594E-1,4.451973E-1,7.218273E-1,1.5242242E0,2.9834275E0,9.327467E-1,1.787311E0,1.2812809E0,2.062587E0,3.0611222E0,1.7741832E0,4.2873597E0,7.5172114E-1,2.118285E0,3.417968E0,7.7255077E0,3.9083307E0,2.9962325E0,5.2568974E0,5.2695255E0,2.1844609E0,4.9990163E0,8.137034E0,3.7427013E0,3.3667347E-1,1.2447939E0,4.0849714E0,3.6701026E0,9.837629E-2,4.205597E0,7.044437E0,1.6185854E1,2.8192936E1,5.4844494E0,1.0072168E1,1.1032792E1,1.6955471E1],"split_indices":[11,11,11,11,11,7,0,10,10,1,9,2,9,5,5,2,12,11,9,10,11,11,11,5,5,11,11,12,3,9,3,11,11,5,0,7,7,0,2,7,0,7,7,10,7,5,0,0,0,0,3,5,3,5,3,3,0,0,0,10,3,0,0,2,2,10,10,3,0,0,11,2,10,0,3,10,5,11,0,3,5,0,9,5,10,12,10,2,2,5,3,3,0,0,3,0,0,12,0,0,0,9,3,10,9,0,5,3,0,9,0,0,0,0,0,0,0,0,0,0,0,0,0,0,0,0,0,0,0,0,0,0,0,0,0,0,0,0,0,0,0,0,0,0,0,0,0,0,0,0,0,0,0,0,0,0,0,0,0,0,0,0,0,0,0,0,0,0,0,0,0,0,0,0,0,0,0,0,0,0,0,0,0,0,0],"split_type":[0,0,0,0,0,0,0,0,0,0,0,0,0,0,0,0,0,0,0,0,0,0,0,0,0,0,0,0,0,0,0,0,0,0,0,0,0,0,0,0,0,0,0,0,0,0,0,0,0,0,0,0,0,0,0,0,0,0,0,0,0,0,0,0,0,0,0,0,0,0,0,0,0,0,0,0,0,0,0,0,0,0,0,0,0,0,0,0,0,0,0,0,0,0,0,0,0,0,0,0,0,0,0,0,0,0,0,0,0,0,0,0,0,0,0,0,0,0,0,0,0,0,0,0,0,0,0,0,0,0,0,0,0,0,0,0,0,0,0,0,0,0,0,0,0,0,0,0,0,0,0,0,0,0,0,0,0,0,0,0,0,0,0,0,0,0,0,0,0,0,0,0,0,0,0,0,0,0,0,0,0,0,0,0,0],"sum_hessian":[6.9671E4,6.9115E4,5.56E2,6.3095E4,6.02E3,4.18E2,1.38E2,5.0881E4,1.2214E4,4.934E3,1.086E3,5.1E1,3.67E2,5.2E1,8.6E1,5.0586E4,2.95E2,1.1422E4,7.92E2,9.8E2,3.954E3,9.98E2,8.8E1,1.1E1,4E1,1.48E2,2.19E2,3.8E1,1.4E1,6.7E1,1.9E1,1.8494E4,3.2092E4,2.7E2,2.5E1,6.439E3,4.983E3,7.7E2,2.2E1,9.14E2,6.6E1,3.194E3,7.6E2,5.14E2,4.84E2,3.3E1,5.5E1,5E0,6E0,2.4E1,1.6E1,1.06E2,4.2E1,1.41E2,7.8E1,3.2E1,6E0,6E0,8E0,2.7E1,4E1,5E0,1.4E1,1.3518E4,4.976E3,2.5388E4,6.704E3,1.64E2,1.06E2,8E0,1.7E1,1.516E3,4.923E3,1.034E3,3.949E3,3E1,7.4E2,1.2E1,1E1,2.11E2,7.03E2,5E0,6.1E1,4.57E2,2.737E3,1.32E2,6.28E2,3.76E2,1.38E2,6E1,4.24E2,2.5E1,8E0,5E0,5E1,7E0,9E0,9.9E1,7E0,5E0,3.7E1,1.01E2,4E1,3.3E1,4.5E1,7E0,2.5E1,2.2E1,5E0,2.9E1,1.1E1,1.402E3,1.2116E4,2.15E2,4.761E3,2.463E4,7.58E2,6.471E3,2.33E2,4.4E1,1.2E2,7.4E1,3.2E1,5E0,1.2E1,1.46E2,1.37E3,4.312E3,6.11E2,1.31E2,9.03E2,3.803E3,1.46E2,9E0,2.1E1,4.81E2,2.59E2,5E0,7E0,5E0,5E0,5.7E1,1.54E2,1.98E2,5.05E2,2.5E1,3.6E1,3.8E2,7.7E1,2.153E3,5.84E2,1.09E2,2.3E1,5.73E2,5.5E1,2.92E2,8.4E1,6.9E1,6.9E1,5.2E1,8E0,3.54E2,7E1,1.7E1,8E0,4.3E1,7E0,8.4E1,1.5E1,3.2E1,5E0,9.5E1,6E0,2.8E1,1.2E1,2.8E1,5E0,2.6E1,1.9E1,7E0,1.8E1,7E0,1.5E1,2E1,9E0],"tree_param":{"num_deleted":"0","num_feature":"14","num_nodes":"185","size_leaf_vector":"1"}},{"base_weights":[5.490928E-2,-1.6520523E0,2.1578242E2,-5.112366E0,3.5086372E1,1.5299771E2,4.002974E2,-7.478398E0,3.9168804E0,2.5565434E1,6.73457E1,1.2868181E2,1.9981529E2,5.292761E2,3.110804E2,-7.7147055E0,2.9916365E1,2.808706E0,2.30439E1,2.2903233E1,6.1000652E1,5.975963E1,1.05932045E2,1.9804684E2,1.172611E2,3.104516E2,1.7135909E2,6.3020764E2,3.3584845E2,3.515159E2,1.5424242E2,-4.008589E0,-8.743685E0,2.4083443E1,9.9389854E1,-7.339615E-1,6.355517E0,2.1263672E1,8.102846E1,3.5530735E1,1.8417017E1,7.617053E0,5.7132374E1,4.832032E1,7.733676E1,1.9308617E2,9.1761955E1,1.2140973E2,2.7219104E2,1.2859976E2,6.627482E1,3.7245724E2,2.4021049E0,8.706629E0,1.6189218E2,3.6423727E2,8.350071E2,1.8699903E0,4.4109244E2,1.7059079E2,4.059981E2,2.1571796E0,6.6343374E0,-5.5021763E0,1.2140626E0,-9.512169E0,-5.762011E0,4.4993847E1,-4.1223907E-1,5.6462564E0,4.321122E1,3.0335975E0,-2.9264112E0,1.1870809E1,3.4520707E0,3.1281862E1,1.2577701E1,1.171476E2,8.871792E-1,2.9922644E1,6.03608E1,1.3846752E1,2.3137602E1,7.64166E1,3.9583977E1,4.4149105E1,7.7052795E1,1.2561876E2,7.1045006E1,2.3117146E0,2.250447E2,1.7235452E2,7.395058E1,5.029317E0,-4.3181998E-1,5.5139327E0,1.0790862E1,1.4802962E2,1.0072884E2,4.1825104E1,4.7824597E0,5.4414783E0,4.208254E2,1.4271385E2,2.2862695E2,1.347213E1,4.0154085E0,3.005794E1,1.4406969E1,8.384455E0,1.9107342E1,8.563349E0,1.849151E0,4.4895172E2,7.9041257E0,9.820092E-3,-1.9021067E-1,4.7394446E-1,-6.825289E-3,-2.9261622E-1,-1.4061338E-1,-8.4829375E-2,-2.3454218E-1,1.1586477E0,2.9618783E0,-1.3402437E-1,6.542969E-1,1.986367E0,6.833816E-1,2.5932387E-1,-1.0043401E-2,2.6470013E0,-9.3367554E-2,6.204716E-1,2.1784937E-1,4.8685163E-2,2.0455025E-1,2.0046682E0,8.143099E-1,-5.7980124E-2,5.8242244E-1,1.7375693E0,5.0011916E0,2.2442257E0,8.286222E-1,2.465785E0,1.3718988E0,8.452231E-1,3.5842454E-1,6.647347E-1,1.5802976E0,2.8629313E0,8.1966424E-1,7.901311E-1,1.7836266E0,1.7065942E0,1.03846E0,3.994709E0,1.9570861E0,4.2783523E0,5.570001E-1,8.123965E-1,2.3416932E0,4.2521806E0,9.574731E0,7.7374663E0,2.7367978E0,1.8123509E0,3.6056395E0,5.1595006E0,2.8003771E0,3.230182E0,3.280162E-1,2.4054945E0,7.9885435E-1,1.47177105E1,6.6830626E0,1.2946781E0,4.4518657E0,3.400149E0,8.245974E0,1.1961623E1,1.9260237E1],"categories":[],"categories_nodes":[],"categories_segments":[],"categories_sizes":[],"default_left":[0,0,0,0,0,0,0,0,0,0,0,0,0,0,0,0,0,0,0,0,0,0,0,0,0,0,0,0,0,0,0,0,0,0,0,0,0,0,0,0,0,0,0,0,0,0,0,0,0,0,0,0,0,0,0,0,0,0,0,0,0,0,0,0,0,0,0,0,0,0,0,0,0,0,0,0,0,0,0,0,0,0,0,0,0,0,0,0,0,0,0,0,0,0,0,0,0,0,0,0,0,0,0,0,0,0,0,0,0,0,0,0,0,0,0,0,0,0,0,0,0,0,0,0,0,0,0,0,0,0,0,0,0,0,0,0,0,0,0,0,0,0,0,0,0,0,0,0,0,0,0,0,0,0,0,0,0,0,0,0,0,0,0,0,0,0,0,0,0,0,0,0,0,0,0,0,0,0,0,0,0,0,0],"id":5,"left_children":[1,3,5,7,9,11,13,15,17,19,21,23,25,27,29,31,33,35,37,39,41,43,45,47,49,51,53,55,57,59,61,63,65,67,69,71,73,75,77,79,81,-1,83,85,87,89,91,93,95,97,99,101,-1,-1,103,105,107,-1,109,111,113,-1,-1,115,117,119,121,123,125,-1,127,129,131,133,135,137,139,141,-1,143,145,147,149,151,153,155,157,159,161,-1,163,165,167,-1,-1,-1,-1,169,171,173,-1,-1,175,177,179,-1,-1,-1,-1,-1,-1,-1,-1,181,-1,-1,-1,-1,-1,-1,-1,-1,-1,-1,-1,-1,-1,-1,-1,-1,-1,-1,-1,-1,-1,-1,-1,-1,-1,-1,-1,-1,-1,-1,-1,-1,-1,-1,-1,-1,-1,-1,-1,-1,-1,-1,-1,-1,-1,-1,-1,-1,-1,-1,-1,-1,-1,-1,-1,-1,-1,-1,-1,-1,-1,-1,-1,-1,-1,-1,-1,-1,-1],"loss_changes":[2.5611004E7,8.772412E6,6.263956E6,1.3473175E6,1.822675E6,4.39866E5,1.423248E6,4.4180625E5,2.7749525E5,4.314065E5,3.897015E5,1.92223E5,3.81217E5,8.62011E5,4.784435E5,1.893355E5,1.2483728E5,1.5554948E5,7.227972E4,2.4117775E5,2.2424538E5,2.240635E5,2.551845E5,1.7715538E5,1.2789275E5,3.5582575E5,7.899875E4,1.60221E6,5.769575E5,5.812585E5,8.873031E4,8.4197766E4,8.9E4,1.4907745E5,1.11597234E5,5.1172445E4,9.901609E4,6.02535E4,3.5550312E4,1.538655E5,6.7678125E4,0E0,1.03561875E5,7.916225E4,1.26237E5,9.3872E4,2.6283888E5,1.2800384E5,7.306075E4,8.903775E4,9.578892E4,1.1768975E5,0E0,0E0,1.03E5,2.720975E5,6.43882E5,0E0,2.9659975E5,1.9510284E5,1.87746E5,0E0,0E0,4.101239E4,5.0483805E4,3.598925E4,4.8043625E4,4.99325E4,1.2261372E4,0E0,6.0020703E3,4.3073156E4,6.660788E4,8.647669E4,2.4951371E4,4.568147E4,3.7238684E4,2.5545656E4,0E0,9.235856E4,6.170975E4,4.3306594E4,4.3655938E4,1.3647238E5,4.2381047E4,7.13685E4,4.8308E4,8.829275E4,1.19946375E5,0E0,1.3503938E5,2.1244356E5,9.225556E4,0E0,0E0,0E0,0E0,1.29316E5,4.9940125E4,1.9421938E4,0E0,0E0,1.11719E5,4.16575E4,8.608625E4,0E0,0E0,0E0,0E0,0E0,0E0,0E0,0E0,1.02717E5,0E0,0E0,0E0,0E0,0E0,0E0,0E0,0E0,0E0,0E0,0E0,0E0,0E0,0E0,0E0,0E0,0E0,0E0,0E0,0E0,0E0,0E0,0E0,0E0,0E0,0E0,0E0,0E0,0E0,0E0,0E0,0E0,0E0,0E0,0E0,0E0,0E0,0E0,0E0,0E0,0E0,0E0,0E0,0E0,0E0,0E0,0E0,0E0,0E0,0E0,0E0,0E0,0E0,0E0,0E0,0E0,0E0,0E0,0E0,0E0,0E0,0E0,0E0,0E0,0E0,0E0,0E0,0E0,0E0],"parents":[2147483647,0,0,1,1,2,2,3,3,4,4,5,5,6,6,7,7,8,8,9,9,10,10,11,11,12,12,13,13,14,14,15,15,16,16,17,17,18,18,19,19,20,20,21,21,22,22,23,23,24,24,25,25,26,26,27,27,28,28,29,29,30,30,31,31,32,32,33,33,34,34,35,35,36,36,37,37,38,38,39,39,40,40,42,42,43,43,44,44,45,45,46,46,47,47,48,48,49,49,50,50,51,51,54,54,55,55,56,56,58,58,59,59,60,60,63,63,64,64,65,65,66,66,67,67,68,68,70,70,71,71,72,72,73,73,74,74,75,75,76,76,77,77,79,79,80,80,81,81,82,82,83,83,84,84,85,85,86,86,87,87,88,88,90,90,91,91,92,92,97,97,98,98,99,99,102,102,103,103,104,104,113,113],"right_children":[2,4,6,8,10,12,14,16,18,20,22,24,26,28,30,32,34,36,38,40,42,44,46,48,50,52,54,56,58,60,62,64,66,68,70,72,74,76,78,80,82,-1,84,86,88,90,92,94,96,98,100,102,-1,-1,104,106,108,-1,110,112,114,-1,-1,116,118,120,122,124,126,-1,128,130,132,134,136,138,140,142,-1,144,146,148,150,152,154,156,158,160,162,-1,164,166,168,-1,-1,-1,-1,170,172,174,-1,-1,176,178,180,-1,-1,-1,-1,-1,-1,-1,-1,182,-1,-1,-1,-1,-1,-1,-1,-1,-1,-1,-1,-1,-1,-1,-1,-1,-1,-1,-1,-1,-1,-1,-1,-1,-1,-1,-1,-1,-1,-1,-1,-1,-1,-1,-1,-1,-1,-1,-1,-1,-1,-1,-1,-1,-1,-1,-1,-1,-1,-1,-1,-1,-1,-1,-1,-1,-1,-1,-1,-1,-1,-1,-1,-1,-1,-1,-1,-1,-1],"split_conditions":[1.83E2,3.4E1,3.5633334E2,8.333333E0,8.8E1,2.6166666E2,1.023E1,9.6E1,5E1,1.06E2,1.31E2,4E1,1.77E2,1E1,1E1,2.59E0,-9.814815E-1,1.6333334E1,1.37E2,8.50947E0,7.01E0,1.26E2,5.714233E0,2.13E2,1E1,1E1,7.01E0,5E0,4.79E2,5E0,1.52E0,3.3333334E-1,1.6666666E0,6E0,2.683E1,3E0,8.50947E0,5E0,2.777E1,6.6E1,4.8333332E1,7.617053E0,5E0,5.2E1,1.0682903E1,1.6E2,3E0,8E0,3E0,8.1E1,3.2E1,4E0,2.4021049E0,8.706629E0,1.23E2,2.4358974E-1,1E0,1.8699903E0,1.2E1,1E0,5.0099757E-2,2.1571796E0,6.6343374E0,7.6E-1,7.9E-1,1.2E1,1E0,1E0,8.3E1,5.6462564E0,-9.4736844E-1,3E0,7.01E0,1.3E1,2.6E1,-9.886364E-1,-9.6153843E-1,2.6333334E1,8.871792E-1,1.023E1,6.6E1,1.5832864E0,9.999662E-2,1.85E0,7.2E1,8.1E1,3.7E1,3.6E2,3E0,2.3117146E0,-1.0344828E-1,3.361E1,1.83E2,5.029317E0,-4.3181998E-1,5.5139327E0,1.0790862E1,2.57E2,4.89E2,1.79E2,4.7824597E0,5.4414783E0,8E0,3E0,-5.714286E-1,1.347213E1,4.0154085E0,3.005794E1,1.4406969E1,8.384455E0,1.9107342E1,8.563349E0,1.849151E0,5.0028212E-2,7.9041257E0,9.820092E-3,-1.9021067E-1,4.7394446E-1,-6.825289E-3,-2.9261622E-1,-1.4061338E-1,-8.4829375E-2,-2.3454218E-1,1.1586477E0,2.9618783E0,-1.3402437E-1,6.542969E-1,1.986367E0,6.833816E-1,2.5932387E-1,-1.0043401E-2,2.6470013E0,-9.3367554E-2,6.204716E-1,2.1784937E-1,4.8685163E-2,2.0455025E-1,2.0046682E0,8.143099E-1,-5.7980124E-2,5.8242244E-1,1.7375693E0,5.0011916E0,2.2442257E0,8.286222E-1,2.465785E0,1.3718988E0,8.452231E-1,3.5842454E-1,6.647347E-1,1.5802976E0,2.8629313E0,8.1966424E-1,7.901311E-1,1.7836266E0,1.7065942E0,1.03846E0,3.994709E0,1.9570861E0,4.2783523E0,5.570001E-1,8.123965E-1,2.3416932E0,4.2521806E0,9.574731E0,7.7374663E0,2.7367978E0,1.8123509E0,3.6056395E0,5.1595006E0,2.8003771E0,3.230182E0,3.280162E-1,2.4054945E0,7.9885435E-1,1.47177105E1,6.6830626E0,1.2946781E0,4.4518657E0,3.400149E0,8.245974E0,1.1961623E1,1.9260237E1],"split_indices":[11,11,11,11,11,11,1,10,10,10,10,7,7,4,4,2,12,11,9,8,1,11,8,11,4,4,1,4,8,4,2,11,11,4,1,8,8,4,1,11,11,0,4,10,7,10,4,4,4,9,10,4,0,0,10,12,10,0,4,8,3,0,0,2,2,10,8,11,9,0,12,7,1,7,11,12,12,11,0,1,7,7,3,2,9,8,8,8,4,0,12,1,9,0,0,0,0,7,9,8,0,0,4,4,12,0,0,0,0,0,0,0,0,3,0,0,0,0,0,0,0,0,0,0,0,0,0,0,0,0,0,0,0,0,0,0,0,0,0,0,0,0,0,0,0,0,0,0,0,0,0,0,0,0,0,0,0,0,0,0,0,0,0,0,0,0,0,0,0,0,0,0,0,0,0,0,0,0,0,0,0,0,0],"split_type":[0,0,0,0,0,0,0,0,0,0,0,0,0,0,0,0,0,0,0,0,0,0,0,0,0,0,0,0,0,0,0,0,0,0,0,0,0,0,0,0,0,0,0,0,0,0,0,0,0,0,0,0,0,0,0,0,0,0,0,0,0,0,0,0,0,0,0,0,0,0,0,0,0,0,0,0,0,0,0,0,0,0,0,0,0,0,0,0,0,0,0,0,0,0,0,0,0,0,0,0,0,0,0,0,0,0,0,0,0,0,0,0,0,0,0,0,0,0,0,0,0,0,0,0,0,0,0,0,0,0,0,0,0,0,0,0,0,0,0,0,0,0,0,0,0,0,0,0,0,0,0,0,0,0,0,0,0,0,0,0,0,0,0,0,0,0,0,0,0,0,0,0,0,0,0,0,0,0,0,0,0,0,0],"sum_hessian":[6.9548E4,6.9003E4,5.45E2,6.3064E4,5.939E3,4.08E2,1.37E2,4.997E4,1.3094E4,4.587E3,1.352E3,2.71E2,1.37E2,5.4E1,8.3E1,4.9657E4,3.13E2,1.2378E4,7.16E2,4.268E3,3.19E2,1.132E3,2.2E2,3.6E1,2.35E2,2.6E1,1.11E2,3.4E1,2E1,6.5E1,1.8E1,1.0792E4,3.8865E4,2.9E2,2.3E1,6.193E3,6.185E3,6.96E2,2E1,1.117E3,3.151E3,5E0,3.14E2,6.88E2,4.44E2,2.9E1,1.91E2,1.9E1,1.7E1,1.91E2,4.4E1,2E1,6E0,6E0,1.05E2,1.6E1,1.8E1,6E0,1.4E1,1.6E1,4.9E1,9E0,9E0,8.392E3,2.4E3,3.0899E4,7.966E3,1.56E2,1.34E2,8E0,1.5E1,2.278E3,3.915E3,2.132E3,4.053E3,3.22E2,3.74E2,1.1E1,9E0,9.13E2,2.04E2,1.603E3,1.548E3,1.48E2,1.66E2,6.03E2,8.5E1,4.9E1,3.95E2,7E0,2.2E1,3.3E1,1.58E2,1.4E1,5E0,1E1,7E0,1.1E2,8.1E1,3.6E1,8E0,5E0,1.5E1,8.4E1,2.1E1,1.1E1,5E0,1.1E1,7E0,9E0,5E0,7E0,9E0,3.6E1,1.3E1,1.055E3,7.337E3,2.15E2,2.185E3,2.9424E4,1.475E3,3.283E3,4.683E3,1.41E2,1.5E1,1.14E2,2E1,6E0,9E0,8.54E2,1.424E3,7E0,3.908E3,7.31E2,1.401E3,2.627E3,1.426E3,3.2E1,2.9E2,1.2E2,2.54E2,6E0,5E0,4.3E1,8.7E2,8E1,1.24E2,1.86E2,1.417E3,1.5E3,4.8E1,1.06E2,4.2E1,1.01E2,6.5E1,2.56E2,3.47E2,1.3E1,7.2E1,4.2E1,7E0,5.5E1,3.4E2,1.3E1,9E0,1.5E1,1.8E1,1.24E2,3.4E1,7.5E1,3.5E1,7.5E1,6E0,9E0,2.7E1,1E1,5E0,5E0,7.9E1,7E0,1.4E1,3.1E1,5E0],"tree_param":{"num_deleted":"0","num_feature":"14","num_nodes":"183","size_leaf_vector":"1"}},{"base_weights":[1.19585946E-1,-1.1278657E0,3.0297452E2,-3.5393412E0,6.563904E1,2.2001079E2,4.7188766E2,-6.376796E0,1.2750523E1,4.891244E1,1.07566795E2,1.6908757E2,3.1113162E2,6.190913E2,3.4910773E2,-7.4894853E0,2.780121E0,9.387184E0,2.9975012E1,4.5321598E1,9.3386986E1,1.6842813E2,9.857744E1,1.3268393E2,2.1082558E2,3.6716855E2,1.8552597E2,4.163875E2,8.111059E2,2.1595867E1,2.770372E2,5.092202E0,-7.9841437E0,7.345194E0,-4.8284188E-1,6.7349753E0,1.8035736E1,9.167042E1,2.803033E1,7.504547E1,4.232821E1,3.590959E1,1.1217102E2,1.4655602E2,2.5631964E2,8.851745E1,1.3987466E2,1.7550517E2,8.736372E1,1.0133109E1,1.7662733E2,4.988444E2,2.5602832E2,7.3412127E0,1.21170715E2,1.5619858E1,7.175461E0,2.7767279E1,1.1691886E1,1.410448E0,3.2422308E2,1.733739E1,-4.4768534E0,-2.9164777E0,-8.560708E0,2.9550846E1,5.7493567E0,9.339218E0,-9.430948E-1,3.1375746E1,5.8740654E0,2.9923683E1,1.6633165E1,1.4338457E2,4.0404644E1,2.483554E1,5.6224747E1,1.10253395E2,5.535337E1,1.08909855E1,4.4640186E1,1.5871548E1,5.8890476E1,1.6589778E2,8.984397E1,1.5683391E2,9.703779E1,5.33628E0,1.0721891E1,1.26843636E2,7.875781E1,1.1474342E2,1.6965283E2,6.486616E0,1.1363562E2,4.4151464E-1,1.0438817E2,1.9185743E-1,1.967384E2,5.22605E0,6.2552686E2,3.9585328E0,3.1073077E2,1.6301588E0,4.684078E0,3.799889E2,3.902098E0,1.5147307E0,3.178998E-1,-1.6158389E-1,4.0619297E0,6.183634E-2,-1.337066E-1,-2.7095807E-1,-1.466636E-1,1.5476708E0,7.416031E-1,2.8832513E-1,5.0847527E-2,1.1996284E0,2.1782328E-1,-8.436561E-2,3.421366E-2,1.8432486E0,1.9181505E-1,7.8578606E-2,2.750883E-1,1.2282256E0,6.463924E-1,1.3581328E-1,5.3163534E-1,2.3127992E0,5.806177E0,-1.10436365E-1,1.9189992E0,5.391394E-1,9.3080807E-1,3.020186E0,1.0290681E0,2.661348E0,4.8252463E0,2.6435049E0,1.1886206E0,-5.2353436E-1,5.8419883E-1,1.1371477E0,1.6913111E0,-6.610019E-1,1.5659801E0,2.6620684E0,6.501458E-1,2.7471228E0,7.1667194E0,3.6008449E0,2.175512E0,3.926537E0,6.0961323E0,4.26084E0,1.75934E-1,4.3258944E0,1.4403304E0,2.607414E0,1.3505492E0,1.7969149E0,3.5476637E0,6.82582E0,3.7491484E0,4.5407476E0,1.7094209E0,5.9901804E-1,3.6341915E0,6.976023E0,3.9123988E0,1.051189E1,2.2182993E1,3.2347565E0,1.1414083E1,1.2101579E1,6.691574E0],"categories":[],"categories_nodes":[],"categories_segments":[],"categories_sizes":[],"default_left":[0,0,0,0,0,0,0,0,0,0,0,0,0,0,0,0,0,0,0,0,0,0,0,0,0,0,0,0,0,0,0,0,0,0,0,0,0,0,0,0,0,0,0,0,0,0,0,0,0,0,0,0,0,0,0,0,0,0,0,0,0,0,0,0,0,0,0,0,0,0,0,0,0,0,0,0,0,0,0,0,0,0,0,0,0,0,0,0,0,0,0,0,0,0,0,0,0,0,0,0,0,0,0,0,0,0,0,0,0,0,0,0,0,0,0,0,0,0,0,0,0,0,0,0,0,0,0,0,0,0,0,0,0,0,0,0,0,0,0,0,0,0,0,0,0,0,0,0,0,0,0,0,0,0,0,0,0,0,0,0,0,0,0,0,0,0,0,0,0,0,0,0,0,0,0,0,0,0,0],"id":6,"left_children":[1,3,5,7,9,11,13,15,17,19,21,23,25,27,29,31,33,35,37,39,41,43,45,47,49,51,53,55,57,-1,59,61,63,65,67,69,71,73,75,77,79,81,83,85,87,89,91,93,95,-1,97,99,101,-1,103,-1,-1,-1,-1,-1,105,107,109,111,113,115,117,119,121,123,125,127,129,131,133,135,137,139,141,143,145,147,149,151,153,155,157,-1,-1,159,161,163,165,-1,167,-1,169,-1,171,-1,173,-1,175,-1,-1,177,-1,-1,-1,-1,-1,-1,-1,-1,-1,-1,-1,-1,-1,-1,-1,-1,-1,-1,-1,-1,-1,-1,-1,-1,-1,-1,-1,-1,-1,-1,-1,-1,-1,-1,-1,-1,-1,-1,-1,-1,-1,-1,-1,-1,-1,-1,-1,-1,-1,-1,-1,-1,-1,-1,-1,-1,-1,-1,-1,-1,-1,-1,-1,-1,-1,-1,-1,-1,-1,-1,-1,-1,-1],"loss_changes":[2.6248186E7,1.1140604E7,3.890004E6,3.0868155E6,1.68628E6,8.42896E5,1.464624E6,5.795095E5,5.7364475E5,2.7139775E5,3.592315E5,1.6343875E5,4.10447E5,1.257947E6,1.2166565E6,3.156605E5,9.18062E4,1.9003012E5,1.9154288E5,1.39083E5,1.3415325E5,1.29641E5,2.37281E5,1.20487625E5,1.8774275E5,5.45393E5,5.791025E4,2.81907E5,6.03846E5,0E0,4.83995E5,2.2493752E5,1.42545E5,9.086322E4,1.6259641E4,1.3443275E5,3.1927938E4,1.2409534E5,1.400135E5,9.441169E4,1.0526075E5,1.4254074E4,1.00227375E5,2.1399625E4,6.32355E4,1.717775E5,6.7315E4,6.3563125E4,4.2975406E4,0E0,1.5962825E5,7.13483E5,1.4221238E5,0E0,2.1873125E4,0E0,0E0,0E0,0E0,0E0,3.6195375E5,1.8762878E5,1.3782131E5,3.824047E4,7.57595E4,1.7028328E4,3.7526E4,9.96078E3,1.3380458E4,1.6033639E5,6.5759E4,1.7939562E4,2.2862375E4,6.4848E4,2.7249035E4,5.9446312E4,1.5146481E5,4.128425E4,4.5464406E4,2.4907367E4,1.049675E5,2.73162E4,1.4727992E4,1.24575875E5,2.7886625E4,4.316075E4,6.0680906E4,0E0,0E0,1.25751125E5,1.0339375E5,5.612E3,1.034115E5,0E0,2.5549438E4,0E0,3.8578344E4,0E0,6.9352625E4,0E0,1.79543E5,0E0,2.1363338E5,0E0,0E0,1.64445E4,0E0,0E0,0E0,0E0,0E0,0E0,0E0,0E0,0E0,0E0,0E0,0E0,0E0,0E0,0E0,0E0,0E0,0E0,0E0,0E0,0E0,0E0,0E0,0E0,0E0,0E0,0E0,0E0,0E0,0E0,0E0,0E0,0E0,0E0,0E0,0E0,0E0,0E0,0E0,0E0,0E0,0E0,0E0,0E0,0E0,0E0,0E0,0E0,0E0,0E0,0E0,0E0,0E0,0E0,0E0,0E0,0E0,0E0,0E0,0E0,0E0,0E0,0E0,0E0,0E0,0E0,0E0,0E0,0E0,0E0,0E0,0E0,0E0],"parents":[2147483647,0,0,1,1,2,2,3,3,4,4,5,5,6,6,7,7,8,8,9,9,10,10,11,11,12,12,13,13,14,14,15,15,16,16,17,17,18,18,19,19,20,20,21,21,22,22,23,23,24,24,25,25,26,26,27,27,28,28,30,30,31,31,32,32,33,33,34,34,35,35,36,36,37,37,38,38,39,39,40,40,41,41,42,42,43,43,44,44,45,45,46,46,47,47,48,48,50,50,51,51,52,52,54,54,60,60,61,61,62,62,63,63,64,64,65,65,66,66,67,67,68,68,69,69,70,70,71,71,72,72,73,73,74,74,75,75,76,76,77,77,78,78,79,79,80,80,81,81,82,82,83,83,84,84,85,85,86,86,89,89,90,90,91,91,92,92,94,94,96,96,98,98,100,100,102,102,105,105],"right_children":[2,4,6,8,10,12,14,16,18,20,22,24,26,28,30,32,34,36,38,40,42,44,46,48,50,52,54,56,58,-1,60,62,64,66,68,70,72,74,76,78,80,82,84,86,88,90,92,94,96,-1,98,100,102,-1,104,-1,-1,-1,-1,-1,106,108,110,112,114,116,118,120,122,124,126,128,130,132,134,136,138,140,142,144,146,148,150,152,154,156,158,-1,-1,160,162,164,166,-1,168,-1,170,-1,172,-1,174,-1,176,-1,-1,178,-1,-1,-1,-1,-1,-1,-1,-1,-1,-1,-1,-1,-1,-1,-1,-1,-1,-1,-1,-1,-1,-1,-1,-1,-1,-1,-1,-1,-1,-1,-1,-1,-1,-1,-1,-1,-1,-1,-1,-1,-1,-1,-1,-1,-1,-1,-1,-1,-1,-1,-1,-1,-1,-1,-1,-1,-1,-1,-1,-1,-1,-1,-1,-1,-1,-1,-1,-1,-1,-1,-1,-1,-1],"split_conditions":[2.6166666E2,7.9E1,4.78E2,1.7333334E1,1.26E2,3.5633334E2,9.74E0,9E0,5.3E1,1.93E2,1.5E1,3.119E1,1E1,4.79E2,1.5832864E0,-9.583333E-1,1E0,4.2E1,-9.9270076E-1,-1.0344828E-1,5E-1,2.13E2,1E0,2.98E2,2.1E2,7.2E-1,4.78E2,1.41E2,2.1276595E-2,2.1595867E1,5E0,5E0,1.56E0,1.2E0,-5E-1,-9.814815E-1,2.489E1,5E0,2.11E2,5E0,2E0,6E0,4E0,9E0,3E0,5.714233E0,2.1E2,7.2E-1,9E0,1.0133109E1,2E0,7.79E0,4E0,7.3412127E0,9.74E0,1.5619858E1,7.175461E0,2.7767279E1,1.1691886E1,1.410448E0,1E1,-9.886364E-1,3E0,7.6E-1,2E0,1.45E1,4.13E0,8.9E-1,1.6E1,5E0,2.6E1,1.5832864E0,2E0,1.46E2,1.564E1,4E1,1.45E1,9.6666664E1,1.8E1,7.2E-1,1.15E2,2.58E2,2.58E2,3E0,2.209E1,6E0,2.147E1,5.33628E0,1.0721891E1,1.25E0,1.46E0,6.5E1,1.6458821E2,6.486616E0,2.95E2,4.4151464E-1,3.8E-1,1.9185743E-1,1E1,5.22605E0,5E0,3.9585328E0,2.95E2,1.6301588E0,4.684078E0,8.693E1,3.902098E0,1.5147307E0,3.178998E-1,-1.6158389E-1,4.0619297E0,6.183634E-2,-1.337066E-1,-2.7095807E-1,-1.466636E-1,1.5476708E0,7.416031E-1,2.8832513E-1,5.0847527E-2,1.1996284E0,2.1782328E-1,-8.436561E-2,3.421366E-2,1.8432486E0,1.9181505E-1,7.8578606E-2,2.750883E-1,1.2282256E0,6.463924E-1,1.3581328E-1,5.3163534E-1,2.3127992E0,5.806177E0,-1.10436365E-1,1.9189992E0,5.391394E-1,9.3080807E-1,3.020186E0,1.0290681E0,2.661348E0,4.8252463E0,2.6435049E0,1.1886206E0,-5.2353436E-1,5.8419883E-1,1.1371477E0,1.6913111E0,-6.610019E-1,1.5659801E0,2.6620684E0,6.501458E-1,2.7471228E0,7.1667194E0,3.6008449E0,2.175512E0,3.926537E0,6.0961323E0,4.26084E0,1.75934E-1,4.3258944E0,1.4403304E0,2.607414E0,1.3505492E0,1.7969149E0,3.5476637E0,6.82582E0,3.7491484E0,4.5407476E0,1.7094209E0,5.9901804E-1,3.6341915E0,6.976023E0,3.9123988E0,1.051189E1,2.2182993E1,3.2347565E0,1.1414083E1,1.2101579E1,6.691574E0],"split_indices":[11,6,6,11,11,11,0,6,11,6,7,0,4,8,8,12,7,6,12,12,2,11,13,8,7,2,7,8,12,0,4,4,2,2,12,12,1,4,8,4,4,4,4,4,4,8,6,2,6,0,4,0,4,0,0,0,0,0,0,0,4,12,6,2,6,0,2,2,6,4,11,7,4,7,0,6,0,11,8,2,6,6,6,4,0,4,0,0,0,12,2,7,7,0,6,0,2,0,4,0,4,0,6,0,0,0,0,0,0,0,0,0,0,0,0,0,0,0,0,0,0,0,0,0,0,0,0,0,0,0,0,0,0,0,0,0,0,0,0,0,0,0,0,0,0,0,0,0,0,0,0,0,0,0,0,0,0,0,0,0,0,0,0,0,0,0,0,0,0,0,0,0,0,0,0,0,0,0,0],"split_type":[0,0,0,0,0,0,0,0,0,0,0,0,0,0,0,0,0,0,0,0,0,0,0,0,0,0,0,0,0,0,0,0,0,0,0,0,0,0,0,0,0,0,0,0,0,0,0,0,0,0,0,0,0,0,0,0,0,0,0,0,0,0,0,0,0,0,0,0,0,0,0,0,0,0,0,0,0,0,0,0,0,0,0,0,0,0,0,0,0,0,0,0,0,0,0,0,0,0,0,0,0,0,0,0,0,0,0,0,0,0,0,0,0,0,0,0,0,0,0,0,0,0,0,0,0,0,0,0,0,0,0,0,0,0,0,0,0,0,0,0,0,0,0,0,0,0,0,0,0,0,0,0,0,0,0,0,0,0,0,0,0,0,0,0,0,0,0,0,0,0,0,0,0,0,0,0,0,0,0],"sum_hessian":[6.9475E4,6.9191E4,2.84E2,6.678E4,2.411E3,1.92E2,9.2E1,5.6874E4,9.906E3,1.725E3,6.86E2,1.25E2,6.7E1,4E1,5.2E1,5.0712E4,6.162E3,8.289E3,1.617E3,1.598E3,1.27E2,8.6E1,6E2,6.9E1,5.6E1,4.5E1,2.2E1,2.1E1,1.9E1,7E0,4.5E1,1.918E3,4.8794E4,2.568E3,3.594E3,6.345E3,1.944E3,4.8E1,1.569E3,1.44E2,1.454E3,3.2E1,9.5E1,7.1E1,1.5E1,4.85E2,1.15E2,3.4E1,3.5E1,1E1,4.6E1,1.9E1,2.6E1,1E1,1.2E1,1.2E1,9E0,1.4E1,5E0,8E0,3.7E1,8.41E2,1.077E3,4.985E3,4.3809E4,1.71E2,2.397E3,1.6E2,3.434E3,2.13E2,6.132E3,2.03E2,1.741E3,2.3E1,2.5E1,1.411E3,1.58E2,5E1,9.4E1,1E2,1.354E3,1.8E1,1.4E1,2.6E1,6.9E1,5.7E1,1.4E1,1E1,5E0,9.6E1,3.89E2,6.5E1,5E1,1.9E1,1.5E1,7E0,2.8E1,5E0,4.1E1,6E0,1.3E1,9E0,1.7E1,5E0,7E0,2.8E1,9E0,1.41E2,7E2,1.071E3,6E0,1.178E3,3.807E3,3.8825E4,4.984E3,2.9E1,1.42E2,1.227E3,1.17E3,9E0,1.51E2,1.81E3,1.624E3,9.6E1,1.17E2,3.086E3,3.046E3,8.6E1,1.17E2,1.44E2,1.597E3,1.1E1,1.2E1,9E0,1.6E1,6.71E2,7.4E2,5.1E1,1.07E2,3.7E1,1.3E1,2.9E1,6.5E1,2.3E1,7.7E1,8.63E2,4.91E2,9E0,9E0,7E0,7E0,1.4E1,1.2E1,2.3E1,4.6E1,3.9E1,1.8E1,9E0,5E0,7.8E1,1.8E1,3.12E2,7.7E1,5E0,6E1,2E1,3E1,8E0,7E0,5E0,2.3E1,2.5E1,1.6E1,5E0,8E0,5E0,1.2E1,2.3E1,5E0],"tree_param":{"num_deleted":"0","num_feature":"14","num_nodes":"179","size_leaf_vector":"1"}},{"base_weights":[9.661193E-2,-1.3224974E0,2.417961E2,-4.557713E0,3.929105E1,1.6243933E2,3.9814746E2,-6.615244E0,7.9019685E0,2.9107994E1,8.308381E1,3.0582077E2,1.459747E2,5.5098016E2,2.9697626E2,-7.0412817E0,1.7336115E1,5.034282E0,1.7638506E1,2.2236572E1,4.8983727E1,7.532941E1,1.4565614E2,5.8060117E0,3.9625632E2,2.2277382E2,1.2990231E2,6.6092847E2,3.0046786E2,5.065054E2,2.4783322E2,-7.6826806E0,-1.845354E0,3.2150433E1,5.9210043E0,3.9444242E0,1.5213186E1,1.6623829E1,5.1266888E1,2.004301E1,5.023955E1,4.6686504E1,1.4648483E2,6.1808826E1,9.413025E1,1.3496532E2,8.986311E0,1.4579567E1,5.868091E0,2.5225354E2,2.6249668E-1,1.1621383E2,2.0896638E2,3.4045932E2,9.002759E2,1.5148851E2,1.7194855E1,5.5895815E0,2.0977486E1,2.4125884E0,2.6515665E2,-1.2741776E0,-8.160648E0,4.6067787E1,-1.95831E0,2.0474174E1,5.0108936E1,4.2468657E0,4.399913E0,6.3328667E0,1.6347613E0,2.8524536E1,1.178938E1,3.429503E1,1.50004E1,2.2287796E1,6.1295925E1,1.7178278E1,3.36114E1,7.733576E1,3.2336563E1,4.3865177E1,8.515396E1,1.0774952E1,7.1607666E1,7.548854E1,4.2893215E1,1.3937206E2,8.50694E1,9.431197E1,1.6651057E2,1.2540128E1,2.1203232E2,1.4896352E2,9.233726E1,8.810535E0,1.4891557E2,2.204053E2,1.5714223E1,1.1040184E3,1.5857318E1,4.1598013E-1,7.0727043E0,3.1155426E2,1.6452225E2,-6.2514044E-2,3.391456E-1,-2.589953E-1,-1.3662773E-1,3.603142E0,-2.5193146E-1,-8.183853E-2,1.4322124E-1,4.2527586E-1,1.2211728E0,1.1365465E0,2.6892514E0,-2.5256885E-2,8.3992994E-1,1.2101655E0,1.7531124E-1,2.1927908E-2,2.5805357E-1,7.72441E-1,2.303765E0,7.138709E-1,2.7337676E-1,1.4906783E0,5.7113534E-1,3.413883E-1,5.785043E-1,9.400783E-1,1.4613064E-1,2.1286204E0,4.752541E-1,3.5380661E0,5.00985E-1,1.3238089E0,7.841712E-1,3.3144164E0,1.296202E0,5.621544E-1,1.4624008E0,1.1532582E0,1.8895149E0,4.2152634E0,6.722224E-1,2.9316378E0,3.8601083E-1,2.03918E0,4.6785913E0,8.2873315E-1,1.7244345E0,4.57355E0,1.5363175E0,1.0042762E0,2.7727282E0,4.3246984E-1,3.400617E0,5.5013833E0,2.1675808E0,8.464904E0,3.2013426E0,1.6146847E0,5.179175E0,5.538048E-1,3.1919415E0,6.6092052E0,2.6671028E0,8.667678E0,3.1115267E0,2.106466E1,4.166517E1,6.5335846E0,1.0382247E1,3.2092621E0,6.6861267E0],"categories":[],"categories_nodes":[],"categories_segments":[],"categories_sizes":[],"default_left":[0,0,0,0,0,0,0,0,0,0,0,0,0,0,0,0,0,0,0,0,0,0,0,0,0,0,0,0,0,0,0,0,0,0,0,0,0,0,0,0,0,0,0,0,0,0,0,0,0,0,0,0,0,0,0,0,0,0,0,0,0,0,0,0,0,0,0,0,0,0,0,0,0,0,0,0,0,0,0,0,0,0,0,0,0,0,0,0,0,0,0,0,0,0,0,0,0,0,0,0,0,0,0,0,0,0,0,0,0,0,0,0,0,0,0,0,0,0,0,0,0,0,0,0,0,0,0,0,0,0,0,0,0,0,0,0,0,0,0,0,0,0,0,0,0,0,0,0,0,0,0,0,0,0,0,0,0,0,0,0,0,0,0,0,0,0,0,0,0,0,0,0,0,0,0,0,0],"id":7,"left_children":[1,3,5,7,9,11,13,15,17,19,21,23,25,27,29,31,33,35,37,39,41,43,45,-1,47,49,51,53,55,57,59,61,63,65,67,69,71,73,75,77,79,81,83,85,87,89,-1,-1,-1,91,-1,93,95,97,99,101,-1,-1,-1,-1,103,105,107,109,111,113,115,-1,117,119,121,123,125,127,129,131,133,135,137,139,141,143,145,-1,147,149,151,153,155,157,159,-1,161,163,165,-1,167,169,-1,171,-1,-1,-1,173,175,-1,-1,-1,-1,-1,-1,-1,-1,-1,-1,-1,-1,-1,-1,-1,-1,-1,-1,-1,-1,-1,-1,-1,-1,-1,-1,-1,-1,-1,-1,-1,-1,-1,-1,-1,-1,-1,-1,-1,-1,-1,-1,-1,-1,-1,-1,-1,-1,-1,-1,-1,-1,-1,-1,-1,-1,-1,-1,-1,-1,-1,-1,-1,-1,-1,-1,-1,-1,-1,-1,-1,-1],"loss_changes":[2.3857224E7,9.085909E6,4.97273E6,1.6419981E6,2.2727765E6,5.95069E5,1.939154E6,5.610555E5,2.5337881E5,5.6445875E5,4.55779E5,1.9743E5,2.734405E5,1.261117E6,7.39335E5,1.7998525E5,1.6231775E5,7.774833E4,6.960275E4,1.881175E5,2.3123425E5,2.122685E5,1.32273E5,0E0,1.5693425E5,2.5645062E5,1.9754725E5,2.454693E6,6.44364E5,7.95337E5,1.81654E5,1.4724825E5,3.2211904E4,8.6616625E4,1.1160204E5,3.4946906E4,3.055986E4,5.7028625E4,1.6063422E4,1.10468625E5,1.0566625E5,1.0912225E5,3.564354E5,1.26647875E5,1.34466E5,1.12511875E5,0E0,0E0,0E0,1.5130775E5,0E0,1.24626E5,1.03755875E5,2.5867425E5,9.30893E5,1.4746984E5,0E0,0E0,0E0,0E0,2.428545E5,3.4017773E4,7.62E4,5.747421E4,3.0702807E4,3.1910812E4,7.584431E4,0E0,6.669784E4,5.157561E4,2.0288055E4,1.6506578E4,1.7166938E4,3.8505797E4,2.8296906E4,2.5227637E3,1.8183281E4,1.11912625E5,3.7891875E4,9.475675E4,2.9427703E4,9.8246875E4,2.3996797E5,0E0,2.787621E4,1.6475762E5,4.584722E4,5.9053375E4,1.1073275E5,6.833659E4,7.4176E4,0E0,1.988255E5,1.5511912E5,1.0709431E5,0E0,6.1785562E4,6.593594E4,0E0,3.98118E5,0E0,0E0,0E0,6.05245E4,4.9996438E4,0E0,0E0,0E0,0E0,0E0,0E0,0E0,0E0,0E0,0E0,0E0,0E0,0E0,0E0,0E0,0E0,0E0,0E0,0E0,0E0,0E0,0E0,0E0,0E0,0E0,0E0,0E0,0E0,0E0,0E0,0E0,0E0,0E0,0E0,0E0,0E0,0E0,0E0,0E0,0E0,0E0,0E0,0E0,0E0,0E0,0E0,0E0,0E0,0E0,0E0,0E0,0E0,0E0,0E0,0E0,0E0,0E0,0E0,0E0,0E0,0E0,0E0,0E0,0E0,0E0,0E0,0E0,0E0,0E0,0E0,0E0,0E0],"parents":[2147483647,0,0,1,1,2,2,3,3,4,4,5,5,6,6,7,7,8,8,9,9,10,10,11,11,12,12,13,13,14,14,15,15,16,16,17,17,18,18,19,19,20,20,21,21,22,22,24,24,25,25,26,26,27,27,28,28,29,29,30,30,31,31,32,32,33,33,34,34,35,35,36,36,37,37,38,38,39,39,40,40,41,41,42,42,43,43,44,44,45,45,49,49,51,51,52,52,53,53,54,54,55,55,60,60,61,61,62,62,63,63,64,64,65,65,66,66,68,68,69,69,70,70,71,71,72,72,73,73,74,74,75,75,76,76,77,77,78,78,79,79,80,80,81,81,82,82,84,84,85,85,86,86,87,87,88,88,89,89,90,90,92,92,93,93,94,94,96,96,97,97,99,99,103,103,104,104],"right_children":[2,4,6,8,10,12,14,16,18,20,22,24,26,28,30,32,34,36,38,40,42,44,46,-1,48,50,52,54,56,58,60,62,64,66,68,70,72,74,76,78,80,82,84,86,88,90,-1,-1,-1,92,-1,94,96,98,100,102,-1,-1,-1,-1,104,106,108,110,112,114,116,-1,118,120,122,124,126,128,130,132,134,136,138,140,142,144,146,-1,148,150,152,154,156,158,160,-1,162,164,166,-1,168,170,-1,172,-1,-1,-1,174,176,-1,-1,-1,-1,-1,-1,-1,-1,-1,-1,-1,-1,-1,-1,-1,-1,-1,-1,-1,-1,-1,-1,-1,-1,-1,-1,-1,-1,-1,-1,-1,-1,-1,-1,-1,-1,-1,-1,-1,-1,-1,-1,-1,-1,-1,-1,-1,-1,-1,-1,-1,-1,-1,-1,-1,-1,-1,-1,-1,-1,-1,-1,-1,-1,-1,-1,-1,-1,-1,-1,-1,-1],"split_conditions":[2.13E2,3.9333332E1,3.5633334E2,1.3E1,1.24E2,4E1,9.74E0,5.5E1,4E1,8E1,1.98E2,4E0,1.02E2,1E1,1.58E2,8.333333E0,5E0,3.2E1,1.1E2,1.06E2,3.97E2,1.26E2,3.58E2,5.8060117E0,9E0,1E0,1.3115E2,5E0,1E0,4.78E2,5E0,2.934E1,7.01E0,9.5E1,6.83E0,2.1276595E-2,3E0,2.209E1,6E1,7.9E1,5E0,1.63E2,3E0,5.714233E0,7E0,2E1,8.986311E0,1.4579567E1,5.868091E0,6.83E0,2.6249668E-1,1.7722214E0,1.3569E2,3.97E2,1E0,3.58E2,1.7194855E1,5.5895815E0,2.0977486E1,2.4125884E0,1E1,1E0,2E0,1.6E1,2.2E1,1.8E1,1.5832864E0,4.2468657E0,1E0,1.998E1,3.2E1,1.2E2,3.985E1,2.1276595E-2,5.3E1,2E1,1.11E2,6.83E0,3.899E1,2.796E1,4.9E1,5.2E1,1.7722214E0,1.0774952E1,1.94E2,1.53E2,9.6666664E1,8E0,3E0,3E0,2.1E2,1.2540128E1,5E0,5E0,8.3E1,8.810535E0,9.6E1,1E0,1.5714223E1,7.79E0,1.5857318E1,4.1598013E-1,7.0727043E0,3.58E2,5.534E1,-6.2514044E-2,3.391456E-1,-2.589953E-1,-1.3662773E-1,3.603142E0,-2.5193146E-1,-8.183853E-2,1.4322124E-1,4.2527586E-1,1.2211728E0,1.1365465E0,2.6892514E0,-2.5256885E-2,8.3992994E-1,1.2101655E0,1.7531124E-1,2.1927908E-2,2.5805357E-1,7.72441E-1,2.303765E0,7.138709E-1,2.7337676E-1,1.4906783E0,5.7113534E-1,3.413883E-1,5.785043E-1,9.400783E-1,1.4613064E-1,2.1286204E0,4.752541E-1,3.5380661E0,5.00985E-1,1.3238089E0,7.841712E-1,3.3144164E0,1.296202E0,5.621544E-1,1.4624008E0,1.1532582E0,1.8895149E0,4.2152634E0,6.722224E-1,2.9316378E0,3.8601083E-1,2.03918E0,4.6785913E0,8.2873315E-1,1.7244345E0,4.57355E0,1.5363175E0,1.0042762E0,2.7727282E0,4.3246984E-1,3.400617E0,5.5013833E0,2.1675808E0,8.464904E0,3.2013426E0,1.6146847E0,5.179175E0,5.538048E-1,3.1919415E0,6.6092052E0,2.6671028E0,8.667678E0,3.1115267E0,2.106466E1,4.166517E1,6.5335846E0,1.0382247E1,3.2092621E0,6.6861267E0],"split_indices":[11,11,11,6,6,7,0,10,6,11,9,4,8,4,8,11,4,10,9,10,10,11,6,0,4,12,0,4,10,6,4,1,1,10,0,12,4,0,6,6,4,11,4,8,7,10,0,0,0,0,0,9,0,10,10,6,0,0,0,0,4,6,6,11,10,7,7,0,6,1,9,10,0,12,6,7,6,0,1,0,6,10,9,0,8,10,11,4,4,4,7,0,4,4,6,0,9,9,0,0,0,0,0,6,0,0,0,0,0,0,0,0,0,0,0,0,0,0,0,0,0,0,0,0,0,0,0,0,0,0,0,0,0,0,0,0,0,0,0,0,0,0,0,0,0,0,0,0,0,0,0,0,0,0,0,0,0,0,0,0,0,0,0,0,0,0,0,0,0,0,0,0,0,0,0,0,0],"split_type":[0,0,0,0,0,0,0,0,0,0,0,0,0,0,0,0,0,0,0,0,0,0,0,0,0,0,0,0,0,0,0,0,0,0,0,0,0,0,0,0,0,0,0,0,0,0,0,0,0,0,0,0,0,0,0,0,0,0,0,0,0,0,0,0,0,0,0,0,0,0,0,0,0,0,0,0,0,0,0,0,0,0,0,0,0,0,0,0,0,0,0,0,0,0,0,0,0,0,0,0,0,0,0,0,0,0,0,0,0,0,0,0,0,0,0,0,0,0,0,0,0,0,0,0,0,0,0,0,0,0,0,0,0,0,0,0,0,0,0,0,0,0,0,0,0,0,0,0,0,0,0,0,0,0,0,0,0,0,0,0,0,0,0,0,0,0,0,0,0,0,0,0,0,0,0,0,0],"sum_hessian":[6.9553E4,6.9148E4,4.05E2,6.4047E4,5.101E3,2.7E2,1.35E2,5.497E4,9.077E3,4.14E3,9.61E2,2.6E1,2.44E2,5.2E1,8.3E1,5.401E4,9.6E2,7.013E3,2.064E3,3.078E3,1.062E3,8.57E2,1.04E2,1.3E1,1.3E1,4E1,2.04E2,3.5E1,1.7E1,1.4E1,6.9E1,4.8075E4,5.935E3,4.17E2,5.43E2,6.336E3,6.77E2,2.005E3,5.9E1,2.856E3,2.22E2,1.039E3,2.3E1,5.01E2,3.56E2,9.9E1,5E0,8E0,5E0,3.5E1,5E0,1.76E2,2.8E1,1.6E1,1.9E1,1.2E1,5E0,6E0,8E0,7E0,6.2E1,3.337E3,4.4738E4,1.3E1,5.922E3,2.54E2,1.63E2,5E0,5.38E2,3.114E3,3.222E3,1.37E2,5.4E2,1.67E2,1.838E3,1.6E1,4.3E1,2.36E3,4.96E2,8.7E1,1.35E2,9.7E2,6.9E1,5E0,1.8E1,2.89E2,2.12E2,5.7E1,2.99E2,4.5E1,5.4E1,5E0,3E1,7.2E1,1.04E2,1E1,1.8E1,1.1E1,5E0,1.1E1,8E0,5E0,7E0,4.1E1,2.1E1,3.136E3,2.01E2,3.9554E4,5.184E3,5E0,8E0,5.315E3,6.07E2,1.95E2,5.9E1,1.26E2,3.7E1,4.41E2,9.7E1,4.3E1,3.071E3,2.853E3,3.69E2,1.31E2,6E0,9.7E1,4.43E2,8.2E1,8.5E1,9.98E2,8.4E2,1E1,6E0,3.5E1,8E0,1E1,2.35E3,2.04E2,2.92E2,4.3E1,4.4E1,7.5E1,6E1,7.58E2,2.12E2,3.6E1,3.3E1,1.2E1,6E0,2.66E2,2.3E1,1.05E2,1.07E2,4.9E1,8E0,3.8E1,2.61E2,9E0,3.6E1,4.5E1,9E0,1.7E1,1.3E1,1.5E1,5.7E1,1.7E1,8.7E1,7E0,1.1E1,6E0,5E0,6E0,5E0,1.3E1,2.8E1,1.2E1,9E0],"tree_param":{"num_deleted":"0","num_feature":"14","num_nodes":"177","size_leaf_vector":"1"}},{"base_weights":[9.444062E-2,-1.1194692E0,3.011094E2,-3.4636896E0,5.8027534E1,5.2127814E2,2.2664012E2,-6.0413294E0,1.1666569E1,4.3639854E1,1.010161E2,2.0802191E2,5.890712E2,1.6911174E2,3.0512625E2,-7.2792225E0,1.4394706E0,8.163472E0,2.6420223E1,9.438329E0,4.279664E1,1.590972E2,9.277306E1,9.749111E0,1.339045E0,6.914466E2,3.288388E2,1.1563998E1,1.5484312E2,3.517816E2,1.5797498E2,-7.6265364E0,1.2555011E1,4.117362E0,1.3218739E0,4.9865103E0,1.3853111E1,2.2654043E1,5.6476128E1,3.3412193E1,5.5207363E1,1.424069E2,8.303564E0,8.318528E1,1.3279245E2,4.464467E2,8.5311835E2,1.7693121E2,1.6267817E1,1.6402402E2,6.006833E1,1.234562E2,4.1087772E2,2.0496538E2,1.0605425E2,-9.977716E-1,-7.9730983E0,2.8622503E1,-2.5711095E-1,5.843187E0,-1.7187325E0,3.585464E0,1.8455343E1,2.8508688E1,1.2605738E1,2.0982653E1,7.831091E1,3.4981644E1,8.5143875E1,3.1125122E1,6.980946E1,5.012715E1,8.109116E1,1.5648404E2,1.1418753E0,7.026878E1,1.1107374E2,1.0772867E2,1.6462762E2,3.2271368E2,1.9203312E1,6.2543384E2,3.4133717E1,1.86891E0,7.4969683E0,8.751276E0,1.5354956E2,3.1272668E-1,2.820748E0,5.6735687E0,6.41453E-1,2.2357359E1,3.510614E2,7.342146E0,3.93045E0,2.0873816E0,3.8209262E0,3.7148783E-1,-7.5082816E-2,-2.4806646E-1,-5.499156E-2,4.3016133E-1,1.5637145E0,-6.501054E-2,3.439546E-1,4.4451028E-1,7.477565E-2,-1.12362035E-1,1.4633759E-2,7.286618E-2,3.331171E-1,4.169379E-1,1.8507868E0,1.1806754E0,6.9872224E-1,3.576686E-1,1.0625556E0,5.653039E-1,1.0308369E0,-2.066144E-1,3.1148672E0,8.98253E-1,3.05354E0,3.1823637E0,8.442216E-1,8.8104534E-1,1.6276704E0,2.654163E0,8.537458E-1,1.418111E0,2.6379325E0,2.0567336E0,4.223188E0,2.4351957E0,5.019898E0,1.991998E0,7.1123333E0,4.069093E0,1.3098124E0,3.4721756E0,1.3504329E0,6.957417E0,3.672447E0,1.2423839E1,6.4140377E0,2.4094503E1,6.7495313E0,3.818619E0,6.0466485E0,4.9423943E0,1.1408271E1],"categories":[],"categories_nodes":[],"categories_segments":[],"categories_sizes":[],"default_left":[0,0,0,0,0,0,0,0,0,0,0,0,0,0,0,0,0,0,0,0,0,0,0,0,0,0,0,0,0,0,0,0,0,0,0,0,0,0,0,0,0,0,0,0,0,0,0,0,0,0,0,0,0,0,0,0,0,0,0,0,0,0,0,0,0,0,0,0,0,0,0,0,0,0,0,0,0,0,0,0,0,0,0,0,0,0,0,0,0,0,0,0,0,0,0,0,0,0,0,0,0,0,0,0,0,0,0,0,0,0,0,0,0,0,0,0,0,0,0,0,0,0,0,0,0,0,0,0,0,0,0,0,0,0,0,0,0,0,0,0,0,0,0,0,0,0,0,0,0,0,0],"id":8,"left_children":[1,3,5,7,9,11,13,15,17,19,21,23,25,27,29,31,33,35,37,-1,39,41,43,-1,-1,45,47,-1,49,51,53,55,57,-1,59,61,63,65,67,69,71,73,-1,75,77,79,81,83,-1,85,87,89,91,93,95,97,99,101,103,105,107,109,111,113,115,117,119,121,123,125,127,129,131,133,-1,135,137,139,141,143,-1,145,-1,-1,-1,-1,147,-1,-1,-1,-1,-1,149,-1,-1,-1,-1,-1,-1,-1,-1,-1,-1,-1,-1,-1,-1,-1,-1,-1,-1,-1,-1,-1,-1,-1,-1,-1,-1,-1,-1,-1,-1,-1,-1,-1,-1,-1,-1,-1,-1,-1,-1,-1,-1,-1,-1,-1,-1,-1,-1,-1,-1,-1,-1,-1,-1,-1,-1,-1,-1],"loss_changes":[2.5473114E7,9.627192E6,4.472608E6,2.6047475E6,1.632762E6,1.363946E6,9.01056E5,5.284576E5,5.0224762E5,4.4004675E5,3.026355E5,2.5296819E5,1.29108E6,3.230575E5,5.48531E5,3.3738675E5,1.2921236E5,1.419684E5,2.0982312E5,0E0,2.2875225E5,1.1964625E5,2.126275E5,0E0,0E0,1.203382E6,4.8755212E5,0E0,9.279875E4,8.39769E5,3.4346312E4,1.1053825E5,1.7354906E5,0E0,1.11324234E5,9.5114234E4,5.1097438E4,1.526745E5,1.2456256E5,9.1881875E4,1.078245E5,1.01251875E5,0E0,1.6256125E5,7.0805625E4,2.24658E5,7.78966E5,8.477603E4,0E0,9.826875E4,1.9238371E4,9.647259E4,7.78297E5,2.5140625E2,1.223E3,4.8199633E4,8.30355E4,1.2479322E5,1.0546479E4,9.786364E4,2.1655062E4,3.9711316E4,9.273445E4,1.1529094E4,4.0048344E4,4.54815E4,1.0508078E5,3.7340688E4,1.0201681E5,4.1678812E4,4.8404312E4,7.294025E4,9.355394E4,3.86685E4,0E0,1.9461462E5,2.391265E5,2.742825E4,1.05070625E5,4.0825875E4,0E0,8.86697E5,0E0,0E0,0E0,0E0,1.016455E5,0E0,0E0,0E0,0E0,0E0,1.87677E5,0E0,0E0,0E0,0E0,0E0,0E0,0E0,0E0,0E0,0E0,0E0,0E0,0E0,0E0,0E0,0E0,0E0,0E0,0E0,0E0,0E0,0E0,0E0,0E0,0E0,0E0,0E0,0E0,0E0,0E0,0E0,0E0,0E0,0E0,0E0,0E0,0E0,0E0,0E0,0E0,0E0,0E0,0E0,0E0,0E0,0E0,0E0,0E0,0E0,0E0,0E0,0E0,0E0,0E0,0E0,0E0,0E0,0E0],"parents":[2147483647,0,0,1,1,2,2,3,3,4,4,5,5,6,6,7,7,8,8,9,9,10,10,11,11,12,12,13,13,14,14,15,15,16,16,17,17,18,18,20,20,21,21,22,22,25,25,26,26,28,28,29,29,30,30,31,31,32,32,34,34,35,35,36,36,37,37,38,38,39,39,40,40,41,41,43,43,44,44,45,45,46,46,47,47,49,49,50,50,51,51,52,52,53,53,54,54,55,55,56,56,57,57,58,58,59,59,60,60,61,61,62,62,63,63,64,64,65,65,66,66,67,67,68,68,69,69,70,70,71,71,72,72,73,73,75,75,76,76,77,77,78,78,79,79,81,81,86,86,92,92],"right_children":[2,4,6,8,10,12,14,16,18,20,22,24,26,28,30,32,34,36,38,-1,40,42,44,-1,-1,46,48,-1,50,52,54,56,58,-1,60,62,64,66,68,70,72,74,-1,76,78,80,82,84,-1,86,88,90,92,94,96,98,100,102,104,106,108,110,112,114,116,118,120,122,124,126,128,130,132,134,-1,136,138,140,142,144,-1,146,-1,-1,-1,-1,148,-1,-1,-1,-1,-1,150,-1,-1,-1,-1,-1,-1,-1,-1,-1,-1,-1,-1,-1,-1,-1,-1,-1,-1,-1,-1,-1,-1,-1,-1,-1,-1,-1,-1,-1,-1,-1,-1,-1,-1,-1,-1,-1,-1,-1,-1,-1,-1,-1,-1,-1,-1,-1,-1,-1,-1,-1,-1,-1,-1,-1,-1,-1,-1],"split_conditions":[2.6166666E2,7.3E1,1.023E1,1.7333334E1,1.26E2,3.5633334E2,3.5633334E2,6E0,4.8333332E1,-8.333333E-1,1.5E1,2.98E2,1E1,1E0,1E1,4.9E1,-9.230769E-1,3.2E1,9.9E1,9.438329E0,1.06E2,2.14E2,1E0,9.749111E0,1.339045E0,5E0,1.2E1,1.1563998E1,4.79E2,5E0,2.6565717E2,2.555E1,5E0,4.117362E0,1E0,4.8E1,2.489E1,1.63E2,8.5E1,1.32E2,1.15E2,9E0,8.303564E0,2.1E2,2.1E2,3.97E2,5.012788E-2,4.78E2,1.6267817E1,3.0013192E-2,1.15E2,3.6E2,1.58E2,4.78E2,2.489E1,4.9634475E-2,1.5E1,9.5E1,5.8E1,6.001E1,1.1E1,3.6E1,1.01E2,1.5832864E0,9.6E1,1.67E2,2.11E2,5.0649352E-2,3.965E1,1.37E2,5.011521E-2,2.34E2,5.0239235E-2,2.9989054E-2,1.1418753E0,5.11E2,8.108108E-2,3.05E2,1.6458821E2,3E0,1.9203312E1,4.9824834E-2,3.4133717E1,1.86891E0,7.4969683E0,8.751276E0,4.499E1,3.1272668E-1,2.820748E0,5.6735687E0,6.41453E-1,2.2357359E1,2.95E2,7.342146E0,3.93045E0,2.0873816E0,3.8209262E0,3.7148783E-1,-7.5082816E-2,-2.4806646E-1,-5.499156E-2,4.3016133E-1,1.5637145E0,-6.501054E-2,3.439546E-1,4.4451028E-1,7.477565E-2,-1.12362035E-1,1.4633759E-2,7.286618E-2,3.331171E-1,4.169379E-1,1.8507868E0,1.1806754E0,6.9872224E-1,3.576686E-1,1.0625556E0,5.653039E-1,1.0308369E0,-2.066144E-1,3.1148672E0,8.98253E-1,3.05354E0,3.1823637E0,8.442216E-1,8.8104534E-1,1.6276704E0,2.654163E0,8.537458E-1,1.418111E0,2.6379325E0,2.0567336E0,4.223188E0,2.4351957E0,5.019898E0,1.991998E0,7.1123333E0,4.069093E0,1.3098124E0,3.4721756E0,1.3504329E0,6.957417E0,3.672447E0,1.2423839E1,6.4140377E0,2.4094503E1,6.7495313E0,3.818619E0,6.0466485E0,4.9423943E0,1.1408271E1],"split_indices":[11,6,1,11,11,11,11,6,11,12,7,8,4,7,4,10,12,6,10,0,6,9,13,0,0,4,4,0,8,4,9,1,4,0,7,10,1,11,9,7,9,4,0,7,6,10,3,6,0,3,6,8,8,7,1,3,10,10,9,1,11,11,9,7,10,8,8,3,1,9,3,6,3,3,0,10,12,9,7,4,0,3,0,0,0,0,1,0,0,0,0,0,6,0,0,0,0,0,0,0,0,0,0,0,0,0,0,0,0,0,0,0,0,0,0,0,0,0,0,0,0,0,0,0,0,0,0,0,0,0,0,0,0,0,0,0,0,0,0,0,0,0,0,0,0,0,0,0,0,0,0],"split_type":[0,0,0,0,0,0,0,0,0,0,0,0,0,0,0,0,0,0,0,0,0,0,0,0,0,0,0,0,0,0,0,0,0,0,0,0,0,0,0,0,0,0,0,0,0,0,0,0,0,0,0,0,0,0,0,0,0,0,0,0,0,0,0,0,0,0,0,0,0,0,0,0,0,0,0,0,0,0,0,0,0,0,0,0,0,0,0,0,0,0,0,0,0,0,0,0,0,0,0,0,0,0,0,0,0,0,0,0,0,0,0,0,0,0,0,0,0,0,0,0,0,0,0,0,0,0,0,0,0,0,0,0,0,0,0,0,0,0,0,0,0,0,0,0,0,0,0,0,0,0,0],"sum_hessian":[6.971E4,6.9431E4,2.79E2,6.6785E4,2.646E3,6.9E1,2.1E2,5.7064E4,9.721E3,1.984E3,6.62E2,1.3E1,5.6E1,1.23E2,8.7E1,4.8962E4,8.102E3,7.857E3,1.864E3,5E0,1.979E3,8E1,5.82E2,7E0,6E0,3.9E1,1.7E1,6E0,1.17E2,6.5E1,2.2E1,4.812E4,8.42E2,6E0,8.096E3,5.043E3,2.814E3,1.658E3,2.06E2,1.129E3,8.5E2,7.2E1,8E0,4.72E2,1.1E2,1.7E1,2.2E1,1.1E1,6E0,1.06E2,1.1E1,1.4E1,5.1E1,1E1,1.2E1,2.391E3,4.5729E4,3.73E2,4.69E2,3.255E3,4.841E3,4.569E3,4.74E2,2.19E2,2.595E3,1.611E3,4.7E1,1.19E2,8.7E1,1.064E3,6.5E1,7.13E2,1.37E2,6.3E1,9E0,3.25E2,1.47E2,6.4E1,4.6E1,1.2E1,5E0,1.4E1,8E0,5E0,6E0,6E0,1E2,5E0,6E0,8E0,6E0,6E0,4.5E1,5E0,5E0,6E0,6E0,2.41E2,2.15E3,4.3627E4,2.102E3,2.33E2,1.4E2,4.04E2,6.5E1,8.84E2,2.371E3,2.523E3,2.318E3,3.961E3,6.08E2,4.3E2,4.4E1,6.9E1,1.5E2,2.521E3,7.4E1,1.391E3,2.2E2,1.1E1,3.6E1,1.12E2,7E0,6.3E1,2.4E1,9.91E2,7.3E1,4.4E1,2.1E1,6.65E2,4.8E1,1.15E2,2.2E1,9E0,5.4E1,3.19E2,6E0,1.07E2,4E1,5.6E1,8E0,1.6E1,3E1,5E0,7E0,9E0,5E0,6.7E1,3.3E1,7E0,3.8E1],"tree_param":{"num_deleted":"0","num_feature":"14","num_nodes":"151","size_leaf_vector":"1"}},{"base_weights":[4.685323E-2,-1.2965878E0,2.3031412E2,-3.3691974E0,5.2958588E1,1.5976689E2,3.65138E2,-5.7959437E0,1.0993522E1,4.0739887E1,8.398385E1,1.3792075E2,2.2690352E2,5.2510944E2,2.6230402E2,-6.9774566E0,1.4757557E0,7.707417E0,2.4663267E1,3.226749E1,5.853594E1,7.6724884E1,1.2763944E2,1.690191E2,1.1238273E2,1.2158654E1,2.0491515E2,5.990229E2,2.2264479E2,3.064283E2,1.3554417E2,-1.0254077E0,-7.6657667E0,2.1046818E1,5.155266E-1,5.516884E0,1.4596131E1,1.9287775E1,3.760959E1,2.9916142E1,5.9409622E1,7.037855E1,3.8640823E1,7.041731E1,1.0994171E2,1.0700423E2,1.7517847E2,1.3858295E2,2.2825784E2,5.413168E0,1.2596205E2,2.5804596E2,1.4859874E2,3.220374E2,7.2601074E2,4.5166123E-1,1.2831249E1,1.7174539E2,3.4140213E2,3.245452E-1,5.2953887E0,5.4405327E0,-2.7299516E0,-5.8851542E0,-8.523901E0,8.057394E0,3.1311712E1,-5.856035E-1,8.526125E0,4.462787E0,1.7770296E1,3.844067E1,1.3908296E1,7.883033E1,1.8727974E1,5.3365025E1,2.7479391E1,2.4211761E1,4.052054E1,7.111161E1,3.72781E1,6.7394424E1,6.4389634E0,-1.2876084E1,4.2976257E1,1.1159275E1,7.362035E1,7.0531715E1,1.5391257E2,5.160974E0,9.269062E1,1.0552169E0,2.0287634E2,1.8251346E2,7.487251E1,1.9470152E2,9.732705E0,-7.4559015E-1,7.500079E-1,8.98745E1,1.5516461E2,3.1234277E2,3.7091327E0,9.343958E-1,1.6998392E2,1.2611876E1,4.486707E0,1.1397822E1,2.469826E1,7.6317015E0,2.028601E0,4.145957E2,2.664038E2,9.177331E-2,7.339542E-1,-1.0604678E-1,2.5325996E-1,-1.8241987E-1,1.8330579E-1,-2.599205E-1,-1.0082699E-1,8.0846214E-1,1.5404588E-1,8.3318835E-1,3.1938224E0,-2.7957847E-2,3.78421E-1,2.2983253E-1,7.6656735E-1,8.992693E-2,2.3298727E-1,3.3218932E0,4.8344284E-1,6.7082536E-1,1.5125736E0,4.079684E-1,1.5877199E0,8.777994E-1,3.7052202E0,8.414532E-2,5.982418E-1,9.4042814E-1,1.9386272E0,8.7621903E-1,-6.436752E-1,1.1869916E0,5.715065E-1,8.948212E-2,1.2810868E0,2.3702145E0,7.978701E-1,-5.5932015E-1,1.4070731E0,1.7939401E0,2.7780883E0,-6.255747E-1,-7.71487E-2,8.9203215E-1,1.7674924E0,8.7301254E-1,-7.210447E-1,2.4025903E0,1.6072718E0,3.4467876E0,1.332956E0,5.1975775E0,1.7187318E0,2.1011002E0,3.2785192E0,7.9899807E0,4.6348834E0,6.2440658E0,3.6349192E0,8.8683575E-1,3.871197E0,6.9689655E0,4.5373907E0,4.613443E0,2.0014853E0,1.8574945E0,5.1618185E0,1.0461767E1,5.8482738E0,3.822792E0,6.759699E0,6.760435E0,1.4499034E1,9.723533E0,4.5894556E0],"categories":[],"categories_nodes":[],"categories_segments":[],"categories_sizes":[],"default_left":[0,0,0,0,0,0,0,0,0,0,0,0,0,0,0,0,0,0,0,0,0,0,0,0,0,0,0,0,0,0,0,0,0,0,0,0,0,0,0,0,0,0,0,0,0,0,0,0,0,0,0,0,0,0,0,0,0,0,0,0,0,0,0,0,0,0,0,0,0,0,0,0,0,0,0,0,0,0,0,0,0,0,0,0,0,0,0,0,0,0,0,0,0,0,0,0,0,0,0,0,0,0,0,0,0,0,0,0,0,0,0,0,0,0,0,0,0,0,0,0,0,0,0,0,0,0,0,0,0,0,0,0,0,0,0,0,0,0,0,0,0,0,0,0,0,0,0,0,0,0,0,0,0,0,0,0,0,0,0,0,0,0,0,0,0,0,0,0,0,0,0,0,0,0,0,0,0,0,0,0,0,0,0,0,0,0,0,0,0],"id":9,"left_children":[1,3,5,7,9,11,13,15,17,19,21,23,25,27,29,31,33,35,37,39,41,43,45,47,49,-1,51,53,55,57,59,61,63,65,67,69,71,73,75,77,79,81,83,85,87,89,91,93,95,97,99,101,103,105,107,-1,-1,109,111,-1,-1,113,115,117,119,121,123,125,127,129,131,133,135,137,139,141,143,145,147,149,151,153,-1,155,157,159,161,163,165,-1,167,-1,169,171,173,175,-1,-1,-1,177,179,181,-1,-1,183,-1,-1,-1,-1,-1,-1,185,187,-1,-1,-1,-1,-1,-1,-1,-1,-1,-1,-1,-1,-1,-1,-1,-1,-1,-1,-1,-1,-1,-1,-1,-1,-1,-1,-1,-1,-1,-1,-1,-1,-1,-1,-1,-1,-1,-1,-1,-1,-1,-1,-1,-1,-1,-1,-1,-1,-1,-1,-1,-1,-1,-1,-1,-1,-1,-1,-1,-1,-1,-1,-1,-1,-1,-1,-1,-1,-1,-1,-1,-1,-1,-1,-1,-1],"loss_changes":[2.1546276E7,7.786872E6,3.784236E6,2.324835E6,9.624825E5,3.602715E5,2.13235E6,4.9023912E5,4.328825E5,2.74021E5,2.180335E5,1.42992E5,1.679225E5,1.051428E6,4.39436E5,2.010815E5,1.498776E5,1.1722678E5,1.29268375E5,7.7479E4,1.3604375E5,1.219315E5,8.030575E4,1.306005E5,1.6635112E5,0E0,1.3815E5,1.243393E6,5.0434456E5,2.38068E5,1.20708625E5,5.61029E4,6.71745E4,4.9477734E4,6.707847E4,7.612453E4,3.0212219E4,4.257878E4,8.582981E4,6.827525E4,2.2718562E4,1.4392E5,5.0139656E4,9.843825E4,1.5721225E5,5.1975312E4,1.0529725E5,1.598365E5,3.0364375E4,8.920918E3,9.352275E4,1.7297912E5,7.254931E4,1.9154362E5,6.29621E5,0E0,0E0,1.1184703E5,1.58462E5,0E0,0E0,4.8036977E4,3.6252195E4,3.3599094E4,2.144525E4,9.023362E3,5.2344297E4,3.057471E4,1.3336211E4,2.6277828E4,7.007316E4,8.881109E3,2.128825E4,2.2946758E4,2.5272188E4,5.0751562E4,2.895364E4,5.8442812E4,3.25545E4,2.0031281E4,2.0252953E4,6.376825E4,0E0,1.4234988E3,4.1510125E4,1.8379754E4,5.998175E4,5.6243656E4,7.4140875E4,0E0,1.56343125E4,0E0,3.2491312E4,3.1337E4,6.2438266E4,4.0385E3,0E0,0E0,0E0,6.0757094E4,7.5976875E4,1.739125E4,0E0,0E0,3.2485312E4,0E0,0E0,0E0,0E0,0E0,0E0,1.9007275E5,1.27111E5,0E0,0E0,0E0,0E0,0E0,0E0,0E0,0E0,0E0,0E0,0E0,0E0,0E0,0E0,0E0,0E0,0E0,0E0,0E0,0E0,0E0,0E0,0E0,0E0,0E0,0E0,0E0,0E0,0E0,0E0,0E0,0E0,0E0,0E0,0E0,0E0,0E0,0E0,0E0,0E0,0E0,0E0,0E0,0E0,0E0,0E0,0E0,0E0,0E0,0E0,0E0,0E0,0E0,0E0,0E0,0E0,0E0,0E0,0E0,0E0,0E0,0E0,0E0,0E0,0E0,0E0,0E0,0E0,0E0,0E0,0E0,0E0,0E0,0E0,0E0,0E0],"parents":[2147483647,0,0,1,1,2,2,3,3,4,4,5,5,6,6,7,7,8,8,9,9,10,10,11,11,12,12,13,13,14,14,15,15,16,16,17,17,18,18,19,19,20,20,21,21,22,22,23,23,24,24,26,26,27,27,28,28,29,29,30,30,31,31,32,32,33,33,34,34,35,35,36,36,37,37,38,38,39,39,40,40,41,41,42,42,43,43,44,44,45,45,46,46,47,47,48,48,49,49,50,50,51,51,52,52,53,53,54,54,57,57,58,58,61,61,62,62,63,63,64,64,65,65,66,66,67,67,68,68,69,69,70,70,71,71,72,72,73,73,74,74,75,75,76,76,77,77,78,78,79,79,80,80,81,81,83,83,84,84,85,85,86,86,87,87,88,88,90,90,92,92,93,93,94,94,95,95,99,99,100,100,101,101,104,104,111,111,112,112],"right_children":[2,4,6,8,10,12,14,16,18,20,22,24,26,28,30,32,34,36,38,40,42,44,46,48,50,-1,52,54,56,58,60,62,64,66,68,70,72,74,76,78,80,82,84,86,88,90,92,94,96,98,100,102,104,106,108,-1,-1,110,112,-1,-1,114,116,118,120,122,124,126,128,130,132,134,136,138,140,142,144,146,148,150,152,154,-1,156,158,160,162,164,166,-1,168,-1,170,172,174,176,-1,-1,-1,178,180,182,-1,-1,184,-1,-1,-1,-1,-1,-1,186,188,-1,-1,-1,-1,-1,-1,-1,-1,-1,-1,-1,-1,-1,-1,-1,-1,-1,-1,-1,-1,-1,-1,-1,-1,-1,-1,-1,-1,-1,-1,-1,-1,-1,-1,-1,-1,-1,-1,-1,-1,-1,-1,-1,-1,-1,-1,-1,-1,-1,-1,-1,-1,-1,-1,-1,-1,-1,-1,-1,-1,-1,-1,-1,-1,-1,-1,-1,-1,-1,-1,-1,-1,-1,-1,-1,-1],"split_conditions":[2.13E2,7.3E1,3.5633334E2,1.7333334E1,1.08666664E2,3.58E2,9.74E0,6E0,4.8333332E1,1.15E2,1E0,1.7722214E0,6.83E0,5.0239235E-2,1E1,1.52E0,1.22E0,4E1,8E1,1.37E2,5.714233E0,1.71E2,2.1E2,1.34E0,7E1,1.2158654E1,1.7722214E0,4.9800184E-2,3.58E2,5E0,4.9800184E-2,6.7E-1,4.32E0,5E0,2.8E1,6.2E1,1.352E1,6.83E0,2.132E1,6.8333336E1,7.1E1,3.72E2,2E0,2E0,1.78E2,1E0,1E0,7.6E-1,2.98E2,1.52E2,4.9964625E-2,7E0,8.3E1,1E1,5E0,4.5166123E-1,1.2831249E1,1E0,8E0,3.245452E-1,5.2953887E0,1.3333334E0,5.9E1,7.3E1,2.3E1,1.352E1,4.9E1,4.2E1,5.8E1,2.5E1,3.4E-1,5.000027E-2,1.52E2,6.6E1,2E0,1.2E2,3.6E2,2.897E1,2E0,5.0143857E-2,9.74E0,1.93E2,6.4389634E0,1.15E0,8.8E1,3.8E1,1E1,1.235E1,2.379E1,5.160974E0,1.58E2,1.0552169E0,1.3254E2,4.9824834E-2,2.564E1,4E0,9.732705E0,-7.4559015E-1,7.500079E-1,4E0,3E0,5.0099757E-2,3.7091327E0,9.343958E-1,4.32E1,1.2611876E1,4.486707E0,1.1397822E1,2.469826E1,7.6317015E0,2.028601E0,3.58E2,5.362E1,9.177331E-2,7.339542E-1,-1.0604678E-1,2.5325996E-1,-1.8241987E-1,1.8330579E-1,-2.599205E-1,-1.0082699E-1,8.0846214E-1,1.5404588E-1,8.3318835E-1,3.1938224E0,-2.7957847E-2,3.78421E-1,2.2983253E-1,7.6656735E-1,8.992693E-2,2.3298727E-1,3.3218932E0,4.8344284E-1,6.7082536E-1,1.5125736E0,4.079684E-1,1.5877199E0,8.777994E-1,3.7052202E0,8.414532E-2,5.982418E-1,9.4042814E-1,1.9386272E0,8.7621903E-1,-6.436752E-1,1.1869916E0,5.715065E-1,8.948212E-2,1.2810868E0,2.3702145E0,7.978701E-1,-5.5932015E-1,1.4070731E0,1.7939401E0,2.7780883E0,-6.255747E-1,-7.71487E-2,8.9203215E-1,1.7674924E0,8.7301254E-1,-7.210447E-1,2.4025903E0,1.6072718E0,3.4467876E0,1.332956E0,5.1975775E0,1.7187318E0,2.1011002E0,3.2785192E0,7.9899807E0,4.6348834E0,6.2440658E0,3.6349192E0,8.8683575E-1,3.871197E0,6.9689655E0,4.5373907E0,4.613443E0,2.0014853E0,1.8574945E0,5.1618185E0,1.0461767E1,5.8482738E0,3.822792E0,6.759699E0,6.760435E0,1.4499034E1,9.723533E0,4.5894556E0],"split_indices":[11,6,11,11,11,6,0,6,11,6,13,9,0,3,4,2,2,6,11,9,8,9,6,2,6,0,9,3,6,4,3,2,2,4,6,9,0,0,1,11,8,9,4,4,6,8,9,2,8,9,3,4,9,4,4,0,0,8,4,0,0,11,9,9,9,0,6,9,9,6,2,3,9,11,4,8,8,0,4,3,0,6,0,2,11,9,4,0,0,0,8,0,0,3,0,4,0,0,0,4,4,3,0,0,0,0,0,0,0,0,0,6,0,0,0,0,0,0,0,0,0,0,0,0,0,0,0,0,0,0,0,0,0,0,0,0,0,0,0,0,0,0,0,0,0,0,0,0,0,0,0,0,0,0,0,0,0,0,0,0,0,0,0,0,0,0,0,0,0,0,0,0,0,0,0,0,0,0,0,0,0,0,0,0,0,0,0,0,0],"split_type":[0,0,0,0,0,0,0,0,0,0,0,0,0,0,0,0,0,0,0,0,0,0,0,0,0,0,0,0,0,0,0,0,0,0,0,0,0,0,0,0,0,0,0,0,0,0,0,0,0,0,0,0,0,0,0,0,0,0,0,0,0,0,0,0,0,0,0,0,0,0,0,0,0,0,0,0,0,0,0,0,0,0,0,0,0,0,0,0,0,0,0,0,0,0,0,0,0,0,0,0,0,0,0,0,0,0,0,0,0,0,0,0,0,0,0,0,0,0,0,0,0,0,0,0,0,0,0,0,0,0,0,0,0,0,0,0,0,0,0,0,0,0,0,0,0,0,0,0,0,0,0,0,0,0,0,0,0,0,0,0,0,0,0,0,0,0,0,0,0,0,0,0,0,0,0,0,0,0,0,0,0,0,0,0,0,0,0,0,0],"sum_hessian":[6.9648E4,6.9245E4,4.03E2,6.6698E4,2.547E3,2.66E2,1.37E2,5.7058E4,9.64E3,1.829E3,7.18E2,2.03E2,6.3E1,5.2E1,8.5E1,4.9083E4,7.975E3,7.773E3,1.867E3,1.241E3,5.88E2,6.18E2,1E2,8.9E1,1.14E2,5E0,5.8E1,4.1E1,1.1E1,6.2E1,2.3E1,5.088E3,4.3995E4,3.72E2,7.603E3,5.899E3,1.874E3,1.321E3,5.46E2,1.144E3,9.7E1,3.67E2,2.21E2,5.22E2,9.6E1,7.2E1,2.8E1,6.1E1,2.8E1,1.3E1,1.01E2,2.8E1,3E1,1.4E1,2.7E1,6E0,5E0,1.4E1,4.8E1,6E0,1.7E1,1.061E3,4.027E3,1.431E4,2.9685E4,1.65E2,2.07E2,6.685E3,9.18E2,5.433E3,4.66E2,5.1E1,1.823E3,1.1E1,1.31E3,2.12E2,3.34E2,7.46E2,3.98E2,6.2E1,3.5E1,3.61E2,6E0,1.7E1,2.04E2,2.7E1,4.95E2,5.2E1,4.4E1,1.1E1,6.1E1,5E0,2.3E1,3.5E1,2.6E1,2.3E1,5E0,5E0,8E0,4.7E1,5.4E1,1.9E1,9E0,5E0,2.5E1,8E0,6E0,7E0,2E1,7E0,7E0,2.2E1,2.6E1,9.44E2,1.17E2,3.757E3,2.7E2,1.4081E4,2.29E2,2.89E4,7.85E2,2.1E1,1.44E2,1.99E2,8E0,6.515E3,1.7E2,8.75E2,4.3E1,3.765E3,1.668E3,7E0,4.59E2,2.3E1,2.8E1,1.81E3,1.3E1,6E0,5E0,9.3E1,1.217E3,7.3E1,1.39E2,3.23E2,1.1E1,1.86E2,5.6E2,2.2E1,3.76E2,5.2E1,1E1,5E0,3E1,2.8E2,8.1E1,9E0,8E0,1.13E2,9.1E1,1.8E1,9E0,3.72E2,1.23E2,1.8E1,3.4E1,3.6E1,8E0,2.8E1,3.3E1,8E0,1.5E1,2.3E1,1.2E1,1.5E1,